FANN_FLO_2.1
num_layers=3
learning_rate=0.700000
connection_rate=1.000000
network_type=0
learning_momentum=0.000000
training_algorithm=2
train_error_function=1
train_stop_function=0
cascade_output_change_fraction=0.010000
quickprop_decay=-0.000100
quickprop_mu=1.750000
rprop_increase_factor=1.200000
rprop_decrease_factor=0.500000
rprop_delta_min=0.000000
rprop_delta_max=50.000000
rprop_delta_zero=0.100000
cascade_output_stagnation_epochs=12
cascade_candidate_change_fraction=0.010000
cascade_candidate_stagnation_epochs=12
cascade_max_out_epochs=150
cascade_min_out_epochs=50
cascade_max_cand_epochs=150
cascade_min_cand_epochs=50
cascade_num_candidate_groups=2
bit_fail_limit=3.49999994039535522461e-01
cascade_candidate_limit=1.00000000000000000000e+03
cascade_weight_multiplier=4.00000005960464477539e-01
cascade_activation_functions_count=10
cascade_activation_functions=3 5 7 8 10 11 14 15 16 17 
cascade_activation_steepnesses_count=4
cascade_activation_steepnesses=2.50000000000000000000e-01 5.00000000000000000000e-01 7.50000000000000000000e-01 1.00000000000000000000e+00 
layer_sizes=785 31 11 
scale_included=0
neurons (num_inputs, activation_function, activation_steepness)=(0, 0, 0.00000000000000000000e+00) (0, 0, 0.00000000000000000000e+00) (0, 0, 0.00000000000000000000e+00) (0, 0, 0.00000000000000000000e+00) (0, 0, 0.00000000000000000000e+00) (0, 0, 0.00000000000000000000e+00) (0, 0, 0.00000000000000000000e+00) (0, 0, 0.00000000000000000000e+00) (0, 0, 0.00000000000000000000e+00) (0, 0, 0.00000000000000000000e+00) (0, 0, 0.00000000000000000000e+00) (0, 0, 0.00000000000000000000e+00) (0, 0, 0.00000000000000000000e+00) (0, 0, 0.00000000000000000000e+00) (0, 0, 0.00000000000000000000e+00) (0, 0, 0.00000000000000000000e+00) (0, 0, 0.00000000000000000000e+00) (0, 0, 0.00000000000000000000e+00) (0, 0, 0.00000000000000000000e+00) (0, 0, 0.00000000000000000000e+00) (0, 0, 0.00000000000000000000e+00) (0, 0, 0.00000000000000000000e+00) (0, 0, 0.00000000000000000000e+00) (0, 0, 0.00000000000000000000e+00) (0, 0, 0.00000000000000000000e+00) (0, 0, 0.00000000000000000000e+00) (0, 0, 0.00000000000000000000e+00) (0, 0, 0.00000000000000000000e+00) (0, 0, 0.00000000000000000000e+00) (0, 0, 0.00000000000000000000e+00) (0, 0, 0.00000000000000000000e+00) (0, 0, 0.00000000000000000000e+00) (0, 0, 0.00000000000000000000e+00) (0, 0, 0.00000000000000000000e+00) (0, 0, 0.00000000000000000000e+00) (0, 0, 0.00000000000000000000e+00) (0, 0, 0.00000000000000000000e+00) (0, 0, 0.00000000000000000000e+00) (0, 0, 0.00000000000000000000e+00) (0, 0, 0.00000000000000000000e+00) (0, 0, 0.00000000000000000000e+00) (0, 0, 0.00000000000000000000e+00) (0, 0, 0.00000000000000000000e+00) (0, 0, 0.00000000000000000000e+00) (0, 0, 0.00000000000000000000e+00) (0, 0, 0.00000000000000000000e+00) (0, 0, 0.00000000000000000000e+00) (0, 0, 0.00000000000000000000e+00) (0, 0, 0.00000000000000000000e+00) (0, 0, 0.00000000000000000000e+00) (0, 0, 0.00000000000000000000e+00) (0, 0, 0.00000000000000000000e+00) (0, 0, 0.00000000000000000000e+00) (0, 0, 0.00000000000000000000e+00) (0, 0, 0.00000000000000000000e+00) (0, 0, 0.00000000000000000000e+00) (0, 0, 0.00000000000000000000e+00) (0, 0, 0.00000000000000000000e+00) (0, 0, 0.00000000000000000000e+00) (0, 0, 0.00000000000000000000e+00) (0, 0, 0.00000000000000000000e+00) (0, 0, 0.00000000000000000000e+00) (0, 0, 0.00000000000000000000e+00) (0, 0, 0.00000000000000000000e+00) (0, 0, 0.00000000000000000000e+00) (0, 0, 0.00000000000000000000e+00) (0, 0, 0.00000000000000000000e+00) (0, 0, 0.00000000000000000000e+00) (0, 0, 0.00000000000000000000e+00) (0, 0, 0.00000000000000000000e+00) (0, 0, 0.00000000000000000000e+00) (0, 0, 0.00000000000000000000e+00) (0, 0, 0.00000000000000000000e+00) (0, 0, 0.00000000000000000000e+00) (0, 0, 0.00000000000000000000e+00) (0, 0, 0.00000000000000000000e+00) (0, 0, 0.00000000000000000000e+00) (0, 0, 0.00000000000000000000e+00) (0, 0, 0.00000000000000000000e+00) (0, 0, 0.00000000000000000000e+00) (0, 0, 0.00000000000000000000e+00) (0, 0, 0.00000000000000000000e+00) (0, 0, 0.00000000000000000000e+00) (0, 0, 0.00000000000000000000e+00) (0, 0, 0.00000000000000000000e+00) (0, 0, 0.00000000000000000000e+00) (0, 0, 0.00000000000000000000e+00) (0, 0, 0.00000000000000000000e+00) (0, 0, 0.00000000000000000000e+00) (0, 0, 0.00000000000000000000e+00) (0, 0, 0.00000000000000000000e+00) (0, 0, 0.00000000000000000000e+00) (0, 0, 0.00000000000000000000e+00) (0, 0, 0.00000000000000000000e+00) (0, 0, 0.00000000000000000000e+00) (0, 0, 0.00000000000000000000e+00) (0, 0, 0.00000000000000000000e+00) (0, 0, 0.00000000000000000000e+00) (0, 0, 0.00000000000000000000e+00) (0, 0, 0.00000000000000000000e+00) (0, 0, 0.00000000000000000000e+00) (0, 0, 0.00000000000000000000e+00) (0, 0, 0.00000000000000000000e+00) (0, 0, 0.00000000000000000000e+00) (0, 0, 0.00000000000000000000e+00) (0, 0, 0.00000000000000000000e+00) (0, 0, 0.00000000000000000000e+00) (0, 0, 0.00000000000000000000e+00) (0, 0, 0.00000000000000000000e+00) (0, 0, 0.00000000000000000000e+00) (0, 0, 0.00000000000000000000e+00) (0, 0, 0.00000000000000000000e+00) (0, 0, 0.00000000000000000000e+00) (0, 0, 0.00000000000000000000e+00) (0, 0, 0.00000000000000000000e+00) (0, 0, 0.00000000000000000000e+00) (0, 0, 0.00000000000000000000e+00) (0, 0, 0.00000000000000000000e+00) (0, 0, 0.00000000000000000000e+00) (0, 0, 0.00000000000000000000e+00) (0, 0, 0.00000000000000000000e+00) (0, 0, 0.00000000000000000000e+00) (0, 0, 0.00000000000000000000e+00) (0, 0, 0.00000000000000000000e+00) (0, 0, 0.00000000000000000000e+00) (0, 0, 0.00000000000000000000e+00) (0, 0, 0.00000000000000000000e+00) (0, 0, 0.00000000000000000000e+00) (0, 0, 0.00000000000000000000e+00) (0, 0, 0.00000000000000000000e+00) (0, 0, 0.00000000000000000000e+00) (0, 0, 0.00000000000000000000e+00) (0, 0, 0.00000000000000000000e+00) (0, 0, 0.00000000000000000000e+00) (0, 0, 0.00000000000000000000e+00) (0, 0, 0.00000000000000000000e+00) (0, 0, 0.00000000000000000000e+00) (0, 0, 0.00000000000000000000e+00) (0, 0, 0.00000000000000000000e+00) (0, 0, 0.00000000000000000000e+00) (0, 0, 0.00000000000000000000e+00) (0, 0, 0.00000000000000000000e+00) (0, 0, 0.00000000000000000000e+00) (0, 0, 0.00000000000000000000e+00) (0, 0, 0.00000000000000000000e+00) (0, 0, 0.00000000000000000000e+00) (0, 0, 0.00000000000000000000e+00) (0, 0, 0.00000000000000000000e+00) (0, 0, 0.00000000000000000000e+00) (0, 0, 0.00000000000000000000e+00) (0, 0, 0.00000000000000000000e+00) (0, 0, 0.00000000000000000000e+00) (0, 0, 0.00000000000000000000e+00) (0, 0, 0.00000000000000000000e+00) (0, 0, 0.00000000000000000000e+00) (0, 0, 0.00000000000000000000e+00) (0, 0, 0.00000000000000000000e+00) (0, 0, 0.00000000000000000000e+00) (0, 0, 0.00000000000000000000e+00) (0, 0, 0.00000000000000000000e+00) (0, 0, 0.00000000000000000000e+00) (0, 0, 0.00000000000000000000e+00) (0, 0, 0.00000000000000000000e+00) (0, 0, 0.00000000000000000000e+00) (0, 0, 0.00000000000000000000e+00) (0, 0, 0.00000000000000000000e+00) (0, 0, 0.00000000000000000000e+00) (0, 0, 0.00000000000000000000e+00) (0, 0, 0.00000000000000000000e+00) (0, 0, 0.00000000000000000000e+00) (0, 0, 0.00000000000000000000e+00) (0, 0, 0.00000000000000000000e+00) (0, 0, 0.00000000000000000000e+00) (0, 0, 0.00000000000000000000e+00) (0, 0, 0.00000000000000000000e+00) (0, 0, 0.00000000000000000000e+00) (0, 0, 0.00000000000000000000e+00) (0, 0, 0.00000000000000000000e+00) (0, 0, 0.00000000000000000000e+00) (0, 0, 0.00000000000000000000e+00) (0, 0, 0.00000000000000000000e+00) (0, 0, 0.00000000000000000000e+00) (0, 0, 0.00000000000000000000e+00) (0, 0, 0.00000000000000000000e+00) (0, 0, 0.00000000000000000000e+00) (0, 0, 0.00000000000000000000e+00) (0, 0, 0.00000000000000000000e+00) (0, 0, 0.00000000000000000000e+00) (0, 0, 0.00000000000000000000e+00) (0, 0, 0.00000000000000000000e+00) (0, 0, 0.00000000000000000000e+00) (0, 0, 0.00000000000000000000e+00) (0, 0, 0.00000000000000000000e+00) (0, 0, 0.00000000000000000000e+00) (0, 0, 0.00000000000000000000e+00) (0, 0, 0.00000000000000000000e+00) (0, 0, 0.00000000000000000000e+00) (0, 0, 0.00000000000000000000e+00) (0, 0, 0.00000000000000000000e+00) (0, 0, 0.00000000000000000000e+00) (0, 0, 0.00000000000000000000e+00) (0, 0, 0.00000000000000000000e+00) (0, 0, 0.00000000000000000000e+00) (0, 0, 0.00000000000000000000e+00) (0, 0, 0.00000000000000000000e+00) (0, 0, 0.00000000000000000000e+00) (0, 0, 0.00000000000000000000e+00) (0, 0, 0.00000000000000000000e+00) (0, 0, 0.00000000000000000000e+00) (0, 0, 0.00000000000000000000e+00) (0, 0, 0.00000000000000000000e+00) (0, 0, 0.00000000000000000000e+00) (0, 0, 0.00000000000000000000e+00) (0, 0, 0.00000000000000000000e+00) (0, 0, 0.00000000000000000000e+00) (0, 0, 0.00000000000000000000e+00) (0, 0, 0.00000000000000000000e+00) (0, 0, 0.00000000000000000000e+00) (0, 0, 0.00000000000000000000e+00) (0, 0, 0.00000000000000000000e+00) (0, 0, 0.00000000000000000000e+00) (0, 0, 0.00000000000000000000e+00) (0, 0, 0.00000000000000000000e+00) (0, 0, 0.00000000000000000000e+00) (0, 0, 0.00000000000000000000e+00) (0, 0, 0.00000000000000000000e+00) (0, 0, 0.00000000000000000000e+00) (0, 0, 0.00000000000000000000e+00) (0, 0, 0.00000000000000000000e+00) (0, 0, 0.00000000000000000000e+00) (0, 0, 0.00000000000000000000e+00) (0, 0, 0.00000000000000000000e+00) (0, 0, 0.00000000000000000000e+00) (0, 0, 0.00000000000000000000e+00) (0, 0, 0.00000000000000000000e+00) (0, 0, 0.00000000000000000000e+00) (0, 0, 0.00000000000000000000e+00) (0, 0, 0.00000000000000000000e+00) (0, 0, 0.00000000000000000000e+00) (0, 0, 0.00000000000000000000e+00) (0, 0, 0.00000000000000000000e+00) (0, 0, 0.00000000000000000000e+00) (0, 0, 0.00000000000000000000e+00) (0, 0, 0.00000000000000000000e+00) (0, 0, 0.00000000000000000000e+00) (0, 0, 0.00000000000000000000e+00) (0, 0, 0.00000000000000000000e+00) (0, 0, 0.00000000000000000000e+00) (0, 0, 0.00000000000000000000e+00) (0, 0, 0.00000000000000000000e+00) (0, 0, 0.00000000000000000000e+00) (0, 0, 0.00000000000000000000e+00) (0, 0, 0.00000000000000000000e+00) (0, 0, 0.00000000000000000000e+00) (0, 0, 0.00000000000000000000e+00) (0, 0, 0.00000000000000000000e+00) (0, 0, 0.00000000000000000000e+00) (0, 0, 0.00000000000000000000e+00) (0, 0, 0.00000000000000000000e+00) (0, 0, 0.00000000000000000000e+00) (0, 0, 0.00000000000000000000e+00) (0, 0, 0.00000000000000000000e+00) (0, 0, 0.00000000000000000000e+00) (0, 0, 0.00000000000000000000e+00) (0, 0, 0.00000000000000000000e+00) (0, 0, 0.00000000000000000000e+00) (0, 0, 0.00000000000000000000e+00) (0, 0, 0.00000000000000000000e+00) (0, 0, 0.00000000000000000000e+00) (0, 0, 0.00000000000000000000e+00) (0, 0, 0.00000000000000000000e+00) (0, 0, 0.00000000000000000000e+00) (0, 0, 0.00000000000000000000e+00) (0, 0, 0.00000000000000000000e+00) (0, 0, 0.00000000000000000000e+00) (0, 0, 0.00000000000000000000e+00) (0, 0, 0.00000000000000000000e+00) (0, 0, 0.00000000000000000000e+00) (0, 0, 0.00000000000000000000e+00) (0, 0, 0.00000000000000000000e+00) (0, 0, 0.00000000000000000000e+00) (0, 0, 0.00000000000000000000e+00) (0, 0, 0.00000000000000000000e+00) (0, 0, 0.00000000000000000000e+00) (0, 0, 0.00000000000000000000e+00) (0, 0, 0.00000000000000000000e+00) (0, 0, 0.00000000000000000000e+00) (0, 0, 0.00000000000000000000e+00) (0, 0, 0.00000000000000000000e+00) (0, 0, 0.00000000000000000000e+00) (0, 0, 0.00000000000000000000e+00) (0, 0, 0.00000000000000000000e+00) (0, 0, 0.00000000000000000000e+00) (0, 0, 0.00000000000000000000e+00) (0, 0, 0.00000000000000000000e+00) (0, 0, 0.00000000000000000000e+00) (0, 0, 0.00000000000000000000e+00) (0, 0, 0.00000000000000000000e+00) (0, 0, 0.00000000000000000000e+00) (0, 0, 0.00000000000000000000e+00) (0, 0, 0.00000000000000000000e+00) (0, 0, 0.00000000000000000000e+00) (0, 0, 0.00000000000000000000e+00) (0, 0, 0.00000000000000000000e+00) (0, 0, 0.00000000000000000000e+00) (0, 0, 0.00000000000000000000e+00) (0, 0, 0.00000000000000000000e+00) (0, 0, 0.00000000000000000000e+00) (0, 0, 0.00000000000000000000e+00) (0, 0, 0.00000000000000000000e+00) (0, 0, 0.00000000000000000000e+00) (0, 0, 0.00000000000000000000e+00) (0, 0, 0.00000000000000000000e+00) (0, 0, 0.00000000000000000000e+00) (0, 0, 0.00000000000000000000e+00) (0, 0, 0.00000000000000000000e+00) (0, 0, 0.00000000000000000000e+00) (0, 0, 0.00000000000000000000e+00) (0, 0, 0.00000000000000000000e+00) (0, 0, 0.00000000000000000000e+00) (0, 0, 0.00000000000000000000e+00) (0, 0, 0.00000000000000000000e+00) (0, 0, 0.00000000000000000000e+00) (0, 0, 0.00000000000000000000e+00) (0, 0, 0.00000000000000000000e+00) (0, 0, 0.00000000000000000000e+00) (0, 0, 0.00000000000000000000e+00) (0, 0, 0.00000000000000000000e+00) (0, 0, 0.00000000000000000000e+00) (0, 0, 0.00000000000000000000e+00) (0, 0, 0.00000000000000000000e+00) (0, 0, 0.00000000000000000000e+00) (0, 0, 0.00000000000000000000e+00) (0, 0, 0.00000000000000000000e+00) (0, 0, 0.00000000000000000000e+00) (0, 0, 0.00000000000000000000e+00) (0, 0, 0.00000000000000000000e+00) (0, 0, 0.00000000000000000000e+00) (0, 0, 0.00000000000000000000e+00) (0, 0, 0.00000000000000000000e+00) (0, 0, 0.00000000000000000000e+00) (0, 0, 0.00000000000000000000e+00) (0, 0, 0.00000000000000000000e+00) (0, 0, 0.00000000000000000000e+00) (0, 0, 0.00000000000000000000e+00) (0, 0, 0.00000000000000000000e+00) (0, 0, 0.00000000000000000000e+00) (0, 0, 0.00000000000000000000e+00) (0, 0, 0.00000000000000000000e+00) (0, 0, 0.00000000000000000000e+00) (0, 0, 0.00000000000000000000e+00) (0, 0, 0.00000000000000000000e+00) (0, 0, 0.00000000000000000000e+00) (0, 0, 0.00000000000000000000e+00) (0, 0, 0.00000000000000000000e+00) (0, 0, 0.00000000000000000000e+00) (0, 0, 0.00000000000000000000e+00) (0, 0, 0.00000000000000000000e+00) (0, 0, 0.00000000000000000000e+00) (0, 0, 0.00000000000000000000e+00) (0, 0, 0.00000000000000000000e+00) (0, 0, 0.00000000000000000000e+00) (0, 0, 0.00000000000000000000e+00) (0, 0, 0.00000000000000000000e+00) (0, 0, 0.00000000000000000000e+00) (0, 0, 0.00000000000000000000e+00) (0, 0, 0.00000000000000000000e+00) (0, 0, 0.00000000000000000000e+00) (0, 0, 0.00000000000000000000e+00) (0, 0, 0.00000000000000000000e+00) (0, 0, 0.00000000000000000000e+00) (0, 0, 0.00000000000000000000e+00) (0, 0, 0.00000000000000000000e+00) (0, 0, 0.00000000000000000000e+00) (0, 0, 0.00000000000000000000e+00) (0, 0, 0.00000000000000000000e+00) (0, 0, 0.00000000000000000000e+00) (0, 0, 0.00000000000000000000e+00) (0, 0, 0.00000000000000000000e+00) (0, 0, 0.00000000000000000000e+00) (0, 0, 0.00000000000000000000e+00) (0, 0, 0.00000000000000000000e+00) (0, 0, 0.00000000000000000000e+00) (0, 0, 0.00000000000000000000e+00) (0, 0, 0.00000000000000000000e+00) (0, 0, 0.00000000000000000000e+00) (0, 0, 0.00000000000000000000e+00) (0, 0, 0.00000000000000000000e+00) (0, 0, 0.00000000000000000000e+00) (0, 0, 0.00000000000000000000e+00) (0, 0, 0.00000000000000000000e+00) (0, 0, 0.00000000000000000000e+00) (0, 0, 0.00000000000000000000e+00) (0, 0, 0.00000000000000000000e+00) (0, 0, 0.00000000000000000000e+00) (0, 0, 0.00000000000000000000e+00) (0, 0, 0.00000000000000000000e+00) (0, 0, 0.00000000000000000000e+00) (0, 0, 0.00000000000000000000e+00) (0, 0, 0.00000000000000000000e+00) (0, 0, 0.00000000000000000000e+00) (0, 0, 0.00000000000000000000e+00) (0, 0, 0.00000000000000000000e+00) (0, 0, 0.00000000000000000000e+00) (0, 0, 0.00000000000000000000e+00) (0, 0, 0.00000000000000000000e+00) (0, 0, 0.00000000000000000000e+00) (0, 0, 0.00000000000000000000e+00) (0, 0, 0.00000000000000000000e+00) (0, 0, 0.00000000000000000000e+00) (0, 0, 0.00000000000000000000e+00) (0, 0, 0.00000000000000000000e+00) (0, 0, 0.00000000000000000000e+00) (0, 0, 0.00000000000000000000e+00) (0, 0, 0.00000000000000000000e+00) (0, 0, 0.00000000000000000000e+00) (0, 0, 0.00000000000000000000e+00) (0, 0, 0.00000000000000000000e+00) (0, 0, 0.00000000000000000000e+00) (0, 0, 0.00000000000000000000e+00) (0, 0, 0.00000000000000000000e+00) (0, 0, 0.00000000000000000000e+00) (0, 0, 0.00000000000000000000e+00) (0, 0, 0.00000000000000000000e+00) (0, 0, 0.00000000000000000000e+00) (0, 0, 0.00000000000000000000e+00) (0, 0, 0.00000000000000000000e+00) (0, 0, 0.00000000000000000000e+00) (0, 0, 0.00000000000000000000e+00) (0, 0, 0.00000000000000000000e+00) (0, 0, 0.00000000000000000000e+00) (0, 0, 0.00000000000000000000e+00) (0, 0, 0.00000000000000000000e+00) (0, 0, 0.00000000000000000000e+00) (0, 0, 0.00000000000000000000e+00) (0, 0, 0.00000000000000000000e+00) (0, 0, 0.00000000000000000000e+00) (0, 0, 0.00000000000000000000e+00) (0, 0, 0.00000000000000000000e+00) (0, 0, 0.00000000000000000000e+00) (0, 0, 0.00000000000000000000e+00) (0, 0, 0.00000000000000000000e+00) (0, 0, 0.00000000000000000000e+00) (0, 0, 0.00000000000000000000e+00) (0, 0, 0.00000000000000000000e+00) (0, 0, 0.00000000000000000000e+00) (0, 0, 0.00000000000000000000e+00) (0, 0, 0.00000000000000000000e+00) (0, 0, 0.00000000000000000000e+00) (0, 0, 0.00000000000000000000e+00) (0, 0, 0.00000000000000000000e+00) (0, 0, 0.00000000000000000000e+00) (0, 0, 0.00000000000000000000e+00) (0, 0, 0.00000000000000000000e+00) (0, 0, 0.00000000000000000000e+00) (0, 0, 0.00000000000000000000e+00) (0, 0, 0.00000000000000000000e+00) (0, 0, 0.00000000000000000000e+00) (0, 0, 0.00000000000000000000e+00) (0, 0, 0.00000000000000000000e+00) (0, 0, 0.00000000000000000000e+00) (0, 0, 0.00000000000000000000e+00) (0, 0, 0.00000000000000000000e+00) (0, 0, 0.00000000000000000000e+00) (0, 0, 0.00000000000000000000e+00) (0, 0, 0.00000000000000000000e+00) (0, 0, 0.00000000000000000000e+00) (0, 0, 0.00000000000000000000e+00) (0, 0, 0.00000000000000000000e+00) (0, 0, 0.00000000000000000000e+00) (0, 0, 0.00000000000000000000e+00) (0, 0, 0.00000000000000000000e+00) (0, 0, 0.00000000000000000000e+00) (0, 0, 0.00000000000000000000e+00) (0, 0, 0.00000000000000000000e+00) (0, 0, 0.00000000000000000000e+00) (0, 0, 0.00000000000000000000e+00) (0, 0, 0.00000000000000000000e+00) (0, 0, 0.00000000000000000000e+00) (0, 0, 0.00000000000000000000e+00) (0, 0, 0.00000000000000000000e+00) (0, 0, 0.00000000000000000000e+00) (0, 0, 0.00000000000000000000e+00) (0, 0, 0.00000000000000000000e+00) (0, 0, 0.00000000000000000000e+00) (0, 0, 0.00000000000000000000e+00) (0, 0, 0.00000000000000000000e+00) (0, 0, 0.00000000000000000000e+00) (0, 0, 0.00000000000000000000e+00) (0, 0, 0.00000000000000000000e+00) (0, 0, 0.00000000000000000000e+00) (0, 0, 0.00000000000000000000e+00) (0, 0, 0.00000000000000000000e+00) (0, 0, 0.00000000000000000000e+00) (0, 0, 0.00000000000000000000e+00) (0, 0, 0.00000000000000000000e+00) (0, 0, 0.00000000000000000000e+00) (0, 0, 0.00000000000000000000e+00) (0, 0, 0.00000000000000000000e+00) (0, 0, 0.00000000000000000000e+00) (0, 0, 0.00000000000000000000e+00) (0, 0, 0.00000000000000000000e+00) (0, 0, 0.00000000000000000000e+00) (0, 0, 0.00000000000000000000e+00) (0, 0, 0.00000000000000000000e+00) (0, 0, 0.00000000000000000000e+00) (0, 0, 0.00000000000000000000e+00) (0, 0, 0.00000000000000000000e+00) (0, 0, 0.00000000000000000000e+00) (0, 0, 0.00000000000000000000e+00) (0, 0, 0.00000000000000000000e+00) (0, 0, 0.00000000000000000000e+00) (0, 0, 0.00000000000000000000e+00) (0, 0, 0.00000000000000000000e+00) (0, 0, 0.00000000000000000000e+00) (0, 0, 0.00000000000000000000e+00) (0, 0, 0.00000000000000000000e+00) (0, 0, 0.00000000000000000000e+00) (0, 0, 0.00000000000000000000e+00) (0, 0, 0.00000000000000000000e+00) (0, 0, 0.00000000000000000000e+00) (0, 0, 0.00000000000000000000e+00) (0, 0, 0.00000000000000000000e+00) (0, 0, 0.00000000000000000000e+00) (0, 0, 0.00000000000000000000e+00) (0, 0, 0.00000000000000000000e+00) (0, 0, 0.00000000000000000000e+00) (0, 0, 0.00000000000000000000e+00) (0, 0, 0.00000000000000000000e+00) (0, 0, 0.00000000000000000000e+00) (0, 0, 0.00000000000000000000e+00) (0, 0, 0.00000000000000000000e+00) (0, 0, 0.00000000000000000000e+00) (0, 0, 0.00000000000000000000e+00) (0, 0, 0.00000000000000000000e+00) (0, 0, 0.00000000000000000000e+00) (0, 0, 0.00000000000000000000e+00) (0, 0, 0.00000000000000000000e+00) (0, 0, 0.00000000000000000000e+00) (0, 0, 0.00000000000000000000e+00) (0, 0, 0.00000000000000000000e+00) (0, 0, 0.00000000000000000000e+00) (0, 0, 0.00000000000000000000e+00) (0, 0, 0.00000000000000000000e+00) (0, 0, 0.00000000000000000000e+00) (0, 0, 0.00000000000000000000e+00) (0, 0, 0.00000000000000000000e+00) (0, 0, 0.00000000000000000000e+00) (0, 0, 0.00000000000000000000e+00) (0, 0, 0.00000000000000000000e+00) (0, 0, 0.00000000000000000000e+00) (0, 0, 0.00000000000000000000e+00) (0, 0, 0.00000000000000000000e+00) (0, 0, 0.00000000000000000000e+00) (0, 0, 0.00000000000000000000e+00) (0, 0, 0.00000000000000000000e+00) (0, 0, 0.00000000000000000000e+00) (0, 0, 0.00000000000000000000e+00) (0, 0, 0.00000000000000000000e+00) (0, 0, 0.00000000000000000000e+00) (0, 0, 0.00000000000000000000e+00) (0, 0, 0.00000000000000000000e+00) (0, 0, 0.00000000000000000000e+00) (0, 0, 0.00000000000000000000e+00) (0, 0, 0.00000000000000000000e+00) (0, 0, 0.00000000000000000000e+00) (0, 0, 0.00000000000000000000e+00) (0, 0, 0.00000000000000000000e+00) (0, 0, 0.00000000000000000000e+00) (0, 0, 0.00000000000000000000e+00) (0, 0, 0.00000000000000000000e+00) (0, 0, 0.00000000000000000000e+00) (0, 0, 0.00000000000000000000e+00) (0, 0, 0.00000000000000000000e+00) (0, 0, 0.00000000000000000000e+00) (0, 0, 0.00000000000000000000e+00) (0, 0, 0.00000000000000000000e+00) (0, 0, 0.00000000000000000000e+00) (0, 0, 0.00000000000000000000e+00) (0, 0, 0.00000000000000000000e+00) (0, 0, 0.00000000000000000000e+00) (0, 0, 0.00000000000000000000e+00) (0, 0, 0.00000000000000000000e+00) (0, 0, 0.00000000000000000000e+00) (0, 0, 0.00000000000000000000e+00) (0, 0, 0.00000000000000000000e+00) (0, 0, 0.00000000000000000000e+00) (0, 0, 0.00000000000000000000e+00) (0, 0, 0.00000000000000000000e+00) (0, 0, 0.00000000000000000000e+00) (0, 0, 0.00000000000000000000e+00) (0, 0, 0.00000000000000000000e+00) (0, 0, 0.00000000000000000000e+00) (0, 0, 0.00000000000000000000e+00) (0, 0, 0.00000000000000000000e+00) (0, 0, 0.00000000000000000000e+00) (0, 0, 0.00000000000000000000e+00) (0, 0, 0.00000000000000000000e+00) (0, 0, 0.00000000000000000000e+00) (0, 0, 0.00000000000000000000e+00) (0, 0, 0.00000000000000000000e+00) (0, 0, 0.00000000000000000000e+00) (0, 0, 0.00000000000000000000e+00) (0, 0, 0.00000000000000000000e+00) (0, 0, 0.00000000000000000000e+00) (0, 0, 0.00000000000000000000e+00) (0, 0, 0.00000000000000000000e+00) (0, 0, 0.00000000000000000000e+00) (0, 0, 0.00000000000000000000e+00) (0, 0, 0.00000000000000000000e+00) (0, 0, 0.00000000000000000000e+00) (0, 0, 0.00000000000000000000e+00) (0, 0, 0.00000000000000000000e+00) (0, 0, 0.00000000000000000000e+00) (0, 0, 0.00000000000000000000e+00) (0, 0, 0.00000000000000000000e+00) (0, 0, 0.00000000000000000000e+00) (0, 0, 0.00000000000000000000e+00) (0, 0, 0.00000000000000000000e+00) (0, 0, 0.00000000000000000000e+00) (0, 0, 0.00000000000000000000e+00) (0, 0, 0.00000000000000000000e+00) (0, 0, 0.00000000000000000000e+00) (0, 0, 0.00000000000000000000e+00) (0, 0, 0.00000000000000000000e+00) (0, 0, 0.00000000000000000000e+00) (0, 0, 0.00000000000000000000e+00) (0, 0, 0.00000000000000000000e+00) (0, 0, 0.00000000000000000000e+00) (0, 0, 0.00000000000000000000e+00) (0, 0, 0.00000000000000000000e+00) (0, 0, 0.00000000000000000000e+00) (0, 0, 0.00000000000000000000e+00) (0, 0, 0.00000000000000000000e+00) (0, 0, 0.00000000000000000000e+00) (0, 0, 0.00000000000000000000e+00) (0, 0, 0.00000000000000000000e+00) (0, 0, 0.00000000000000000000e+00) (0, 0, 0.00000000000000000000e+00) (0, 0, 0.00000000000000000000e+00) (0, 0, 0.00000000000000000000e+00) (0, 0, 0.00000000000000000000e+00) (0, 0, 0.00000000000000000000e+00) (0, 0, 0.00000000000000000000e+00) (0, 0, 0.00000000000000000000e+00) (0, 0, 0.00000000000000000000e+00) (0, 0, 0.00000000000000000000e+00) (0, 0, 0.00000000000000000000e+00) (0, 0, 0.00000000000000000000e+00) (0, 0, 0.00000000000000000000e+00) (0, 0, 0.00000000000000000000e+00) (0, 0, 0.00000000000000000000e+00) (0, 0, 0.00000000000000000000e+00) (0, 0, 0.00000000000000000000e+00) (0, 0, 0.00000000000000000000e+00) (0, 0, 0.00000000000000000000e+00) (0, 0, 0.00000000000000000000e+00) (0, 0, 0.00000000000000000000e+00) (0, 0, 0.00000000000000000000e+00) (0, 0, 0.00000000000000000000e+00) (0, 0, 0.00000000000000000000e+00) (0, 0, 0.00000000000000000000e+00) (0, 0, 0.00000000000000000000e+00) (0, 0, 0.00000000000000000000e+00) (0, 0, 0.00000000000000000000e+00) (0, 0, 0.00000000000000000000e+00) (0, 0, 0.00000000000000000000e+00) (0, 0, 0.00000000000000000000e+00) (0, 0, 0.00000000000000000000e+00) (0, 0, 0.00000000000000000000e+00) (0, 0, 0.00000000000000000000e+00) (0, 0, 0.00000000000000000000e+00) (0, 0, 0.00000000000000000000e+00) (0, 0, 0.00000000000000000000e+00) (0, 0, 0.00000000000000000000e+00) (0, 0, 0.00000000000000000000e+00) (0, 0, 0.00000000000000000000e+00) (0, 0, 0.00000000000000000000e+00) (0, 0, 0.00000000000000000000e+00) (0, 0, 0.00000000000000000000e+00) (0, 0, 0.00000000000000000000e+00) (0, 0, 0.00000000000000000000e+00) (0, 0, 0.00000000000000000000e+00) (0, 0, 0.00000000000000000000e+00) (0, 0, 0.00000000000000000000e+00) (0, 0, 0.00000000000000000000e+00) (0, 0, 0.00000000000000000000e+00) (0, 0, 0.00000000000000000000e+00) (0, 0, 0.00000000000000000000e+00) (0, 0, 0.00000000000000000000e+00) (0, 0, 0.00000000000000000000e+00) (0, 0, 0.00000000000000000000e+00) (0, 0, 0.00000000000000000000e+00) (0, 0, 0.00000000000000000000e+00) (0, 0, 0.00000000000000000000e+00) (0, 0, 0.00000000000000000000e+00) (0, 0, 0.00000000000000000000e+00) (0, 0, 0.00000000000000000000e+00) (0, 0, 0.00000000000000000000e+00) (0, 0, 0.00000000000000000000e+00) (0, 0, 0.00000000000000000000e+00) (0, 0, 0.00000000000000000000e+00) (0, 0, 0.00000000000000000000e+00) (0, 0, 0.00000000000000000000e+00) (0, 0, 0.00000000000000000000e+00) (0, 0, 0.00000000000000000000e+00) (0, 0, 0.00000000000000000000e+00) (0, 0, 0.00000000000000000000e+00) (0, 0, 0.00000000000000000000e+00) (0, 0, 0.00000000000000000000e+00) (0, 0, 0.00000000000000000000e+00) (0, 0, 0.00000000000000000000e+00) (0, 0, 0.00000000000000000000e+00) (0, 0, 0.00000000000000000000e+00) (0, 0, 0.00000000000000000000e+00) (0, 0, 0.00000000000000000000e+00) (0, 0, 0.00000000000000000000e+00) (0, 0, 0.00000000000000000000e+00) (0, 0, 0.00000000000000000000e+00) (0, 0, 0.00000000000000000000e+00) (0, 0, 0.00000000000000000000e+00) (0, 0, 0.00000000000000000000e+00) (0, 0, 0.00000000000000000000e+00) (0, 0, 0.00000000000000000000e+00) (0, 0, 0.00000000000000000000e+00) (0, 0, 0.00000000000000000000e+00) (0, 0, 0.00000000000000000000e+00) (0, 0, 0.00000000000000000000e+00) (0, 0, 0.00000000000000000000e+00) (0, 0, 0.00000000000000000000e+00) (0, 0, 0.00000000000000000000e+00) (0, 0, 0.00000000000000000000e+00) (0, 0, 0.00000000000000000000e+00) (0, 0, 0.00000000000000000000e+00) (0, 0, 0.00000000000000000000e+00) (0, 0, 0.00000000000000000000e+00) (0, 0, 0.00000000000000000000e+00) (0, 0, 0.00000000000000000000e+00) (0, 0, 0.00000000000000000000e+00) (0, 0, 0.00000000000000000000e+00) (0, 0, 0.00000000000000000000e+00) (0, 0, 0.00000000000000000000e+00) (0, 0, 0.00000000000000000000e+00) (0, 0, 0.00000000000000000000e+00) (0, 0, 0.00000000000000000000e+00) (0, 0, 0.00000000000000000000e+00) (0, 0, 0.00000000000000000000e+00) (0, 0, 0.00000000000000000000e+00) (0, 0, 0.00000000000000000000e+00) (0, 0, 0.00000000000000000000e+00) (0, 0, 0.00000000000000000000e+00) (0, 0, 0.00000000000000000000e+00) (0, 0, 0.00000000000000000000e+00) (0, 0, 0.00000000000000000000e+00) (0, 0, 0.00000000000000000000e+00) (0, 0, 0.00000000000000000000e+00) (0, 0, 0.00000000000000000000e+00) (0, 0, 0.00000000000000000000e+00) (0, 0, 0.00000000000000000000e+00) (0, 0, 0.00000000000000000000e+00) (0, 0, 0.00000000000000000000e+00) (0, 0, 0.00000000000000000000e+00) (0, 0, 0.00000000000000000000e+00) (0, 0, 0.00000000000000000000e+00) (0, 0, 0.00000000000000000000e+00) (0, 0, 0.00000000000000000000e+00) (0, 0, 0.00000000000000000000e+00) (0, 0, 0.00000000000000000000e+00) (0, 0, 0.00000000000000000000e+00) (0, 0, 0.00000000000000000000e+00) (0, 0, 0.00000000000000000000e+00) (0, 0, 0.00000000000000000000e+00) (0, 0, 0.00000000000000000000e+00) (0, 0, 0.00000000000000000000e+00) (0, 0, 0.00000000000000000000e+00) (0, 0, 0.00000000000000000000e+00) (0, 0, 0.00000000000000000000e+00) (0, 0, 0.00000000000000000000e+00) (0, 0, 0.00000000000000000000e+00) (0, 0, 0.00000000000000000000e+00) (0, 0, 0.00000000000000000000e+00) (0, 0, 0.00000000000000000000e+00) (0, 0, 0.00000000000000000000e+00) (0, 0, 0.00000000000000000000e+00) (0, 0, 0.00000000000000000000e+00) (785, 5, 5.00000000000000000000e-01) (785, 5, 5.00000000000000000000e-01) (785, 5, 5.00000000000000000000e-01) (785, 5, 5.00000000000000000000e-01) (785, 5, 5.00000000000000000000e-01) (785, 5, 5.00000000000000000000e-01) (785, 5, 5.00000000000000000000e-01) (785, 5, 5.00000000000000000000e-01) (785, 5, 5.00000000000000000000e-01) (785, 5, 5.00000000000000000000e-01) (785, 5, 5.00000000000000000000e-01) (785, 5, 5.00000000000000000000e-01) (785, 5, 5.00000000000000000000e-01) (785, 5, 5.00000000000000000000e-01) (785, 5, 5.00000000000000000000e-01) (785, 5, 5.00000000000000000000e-01) (785, 5, 5.00000000000000000000e-01) (785, 5, 5.00000000000000000000e-01) (785, 5, 5.00000000000000000000e-01) (785, 5, 5.00000000000000000000e-01) (785, 5, 5.00000000000000000000e-01) (785, 5, 5.00000000000000000000e-01) (785, 5, 5.00000000000000000000e-01) (785, 5, 5.00000000000000000000e-01) (785, 5, 5.00000000000000000000e-01) (785, 5, 5.00000000000000000000e-01) (785, 5, 5.00000000000000000000e-01) (785, 5, 5.00000000000000000000e-01) (785, 5, 5.00000000000000000000e-01) (785, 5, 5.00000000000000000000e-01) (0, 5, 0.00000000000000000000e+00) (31, 5, 5.00000000000000000000e-01) (31, 5, 5.00000000000000000000e-01) (31, 5, 5.00000000000000000000e-01) (31, 5, 5.00000000000000000000e-01) (31, 5, 5.00000000000000000000e-01) (31, 5, 5.00000000000000000000e-01) (31, 5, 5.00000000000000000000e-01) (31, 5, 5.00000000000000000000e-01) (31, 5, 5.00000000000000000000e-01) (31, 5, 5.00000000000000000000e-01) (0, 5, 0.00000000000000000000e+00) 
connections (connected_to_neuron, weight)=(0, 1.50000000000000000000e+03) (1, 1.50000000000000000000e+03) (2, 1.50000000000000000000e+03) (3, 1.50000000000000000000e+03) (4, 1.50000000000000000000e+03) (5, 1.50000000000000000000e+03) (6, 1.50000000000000000000e+03) (7, 1.50000000000000000000e+03) (8, 1.50000000000000000000e+03) (9, 1.50000000000000000000e+03) (10, 1.50000000000000000000e+03) (11, 1.50000000000000000000e+03) (12, 1.50000000000000000000e+03) (13, 1.50000000000000000000e+03) (14, 1.50000000000000000000e+03) (15, 1.50000000000000000000e+03) (16, 1.50000000000000000000e+03) (17, 1.50000000000000000000e+03) (18, 1.50000000000000000000e+03) (19, 1.50000000000000000000e+03) (20, 1.50000000000000000000e+03) (21, 1.50000000000000000000e+03) (22, 1.50000000000000000000e+03) (23, 1.50000000000000000000e+03) (24, 1.50000000000000000000e+03) (25, 1.50000000000000000000e+03) (26, 1.50000000000000000000e+03) (27, 1.50000000000000000000e+03) (28, 1.50000000000000000000e+03) (29, 1.50000000000000000000e+03) (30, 1.50000000000000000000e+03) (31, 1.50000000000000000000e+03) (32, 1.50000000000000000000e+03) (33, -1.50000000000000000000e+03) (34, -1.50000000000000000000e+03) (35, -1.50000000000000000000e+03) (36, -1.50000000000000000000e+03) (37, -1.50000000000000000000e+03) (38, -1.50000000000000000000e+03) (39, -1.50000000000000000000e+03) (40, -1.50000000000000000000e+03) (41, -1.50000000000000000000e+03) (42, -1.50000000000000000000e+03) (43, -1.50000000000000000000e+03) (44, -1.50000000000000000000e+03) (45, -1.50000000000000000000e+03) (46, -1.50000000000000000000e+03) (47, -6.59199951171875000000e+02) (48, -1.50000000000000000000e+03) (49, 1.50000000000000000000e+03) (50, 1.50000000000000000000e+03) (51, 1.50000000000000000000e+03) (52, 1.50000000000000000000e+03) (53, 1.50000000000000000000e+03) (54, 1.50000000000000000000e+03) (55, 1.50000000000000000000e+03) (56, 1.50000000000000000000e+03) (57, 1.50000000000000000000e+03) (58, 1.50000000000000000000e+03) (59, 1.50000000000000000000e+03) (60, 1.50000000000000000000e+03) (61, -1.50000000000000000000e+03) (62, -1.50000000000000000000e+03) (63, -1.50000000000000000000e+03) (64, -1.50000000000000000000e+03) (65, -1.50000000000000000000e+03) (66, -1.50000000000000000000e+03) (67, -1.50000000000000000000e+03) (68, -1.50000000000000000000e+03) (69, -1.50000000000000000000e+03) (70, -1.50000000000000000000e+03) (71, -1.50000000000000000000e+03) (72, -1.50000000000000000000e+03) (73, -1.50000000000000000000e+03) (74, -1.50000000000000000000e+03) (75, -1.50000000000000000000e+03) (76, -3.50000000000000000000e+02) (77, -1.50000000000000000000e+03) (78, -1.50000000000000000000e+03) (79, -1.50000000000000000000e+03) (80, -1.50000000000000000000e+03) (81, 1.50000000000000000000e+03) (82, 1.50000000000000000000e+03) (83, 1.50000000000000000000e+03) (84, 1.50000000000000000000e+03) (85, 1.50000000000000000000e+03) (86, 1.50000000000000000000e+03) (87, 1.50000000000000000000e+03) (88, 7.90800048828125000000e+02) (89, -1.50000000000000000000e+03) (90, -1.50000000000000000000e+03) (91, -1.50000000000000000000e+03) (92, -1.50000000000000000000e+03) (93, -1.50000000000000000000e+03) (94, -1.50000000000000000000e+03) (95, -1.50000000000000000000e+03) (96, -1.50000000000000000000e+03) (97, -1.50000000000000000000e+03) (98, -1.50000000000000000000e+03) (99, -1.50000000000000000000e+03) (100, -1.50000000000000000000e+03) (101, -1.50000000000000000000e+03) (102, -1.50000000000000000000e+03) (103, -1.50000000000000000000e+03) (104, -1.50000000000000000000e+03) (105, -1.50000000000000000000e+03) (106, -1.50000000000000000000e+03) (107, -1.50000000000000000000e+03) (108, -1.50000000000000000000e+03) (109, -1.50000000000000000000e+03) (110, -1.50000000000000000000e+03) (111, 1.50000000000000000000e+03) (112, 1.50000000000000000000e+03) (113, 1.50000000000000000000e+03) (114, 1.50000000000000000000e+03) (115, -1.50000000000000000000e+03) (116, 9.40800048828125000000e+02) (117, -1.50000000000000000000e+03) (118, -1.50000000000000000000e+03) (119, -1.50000000000000000000e+03) (120, -1.50000000000000000000e+03) (121, -1.50000000000000000000e+03) (122, -1.50000000000000000000e+03) (123, -1.50000000000000000000e+03) (124, -1.50000000000000000000e+03) (125, -1.50000000000000000000e+03) (126, -1.50000000000000000000e+03) (127, -1.50000000000000000000e+03) (128, -1.50000000000000000000e+03) (129, -1.50000000000000000000e+03) (130, -1.50000000000000000000e+03) (131, -1.43492089843750000000e+03) (132, -1.32500000000000000000e+03) (133, 1.43400000000000000000e+03) (134, 1.50000000000000000000e+03) (135, 1.46728942871093750000e+02) (136, -3.56800048828125000000e+02) (137, -5.81568298339843750000e+02) (138, 1.50000000000000000000e+03) (139, 1.50000000000000000000e+03) (140, 1.50000000000000000000e+03) (141, 3.40800048828125000000e+02) (142, 6.60009765625000000000e+00) (143, -1.50000000000000000000e+03) (144, 1.50000000000000000000e+03) (145, 9.75705200195312500000e+02) (146, -1.50000000000000000000e+03) (147, -1.50000000000000000000e+03) (148, -1.50000000000000000000e+03) (149, -1.50000000000000000000e+03) (150, -1.50000000000000000000e+03) (151, -1.50000000000000000000e+03) (152, -1.50000000000000000000e+03) (153, -1.50000000000000000000e+03) (154, -1.50000000000000000000e+03) (155, -1.50000000000000000000e+03) (156, -1.50000000000000000000e+03) (157, -1.50000000000000000000e+03) (158, 3.55719299316406250000e+02) (159, -1.35391528320312500000e+03) (160, -7.14614257812500000000e+02) (161, 1.50000000000000000000e+03) (162, 1.50000000000000000000e+03) (163, 1.50000000000000000000e+03) (164, 1.50000000000000000000e+03) (165, 1.50000000000000000000e+03) (166, 1.50000000000000000000e+03) (167, 1.50000000000000000000e+03) (168, 1.50000000000000000000e+03) (169, 1.50000000000000000000e+03) (170, -1.92870422363281250000e+02) (171, 8.71551635742187500000e+02) (172, 8.53347045898437500000e+02) (173, 1.46603454589843750000e+03) (174, -1.34061010742187500000e+03) (175, -1.43244055175781250000e+03) (176, -1.50000000000000000000e+03) (177, -1.49941992187500000000e+03) (178, -1.49986267089843750000e+03) (179, 6.56506896972656250000e+02) (180, 1.67153106689453125000e+02) (181, 7.68153320312500000000e+02) (182, 1.48443103027343750000e+03) (183, 1.00432604980468750000e+03) (184, 4.39951110839843750000e+02) (185, 8.49497802734375000000e+02) (186, -6.84256103515625000000e+02) (187, 9.97497436523437500000e+02) (188, -7.48746276855468750000e+02) (189, 1.50000000000000000000e+03) (190, 1.50000000000000000000e+03) (191, 1.50000000000000000000e+03) (192, 1.50000000000000000000e+03) (193, 1.50000000000000000000e+03) (194, 1.43400000000000000000e+03) (195, -1.50000000000000000000e+03) (196, 1.50000000000000000000e+03) (197, -1.20900000000000000000e+03) (198, -2.69308837890625000000e+02) (199, 1.50000000000000000000e+03) (200, 1.08081555175781250000e+03) (201, -1.37832409667968750000e+03) (202, 6.59169250488281250000e+02) (203, 4.31252593994140625000e+02) (204, 4.37649993896484375000e+02) (205, 1.48656311035156250000e+03) (206, -1.03908239746093750000e+03) (207, 1.50000000000000000000e+03) (208, 1.50000000000000000000e+03) (209, 1.14243627929687500000e+03) (210, 1.27998010253906250000e+03) (211, 1.49241955566406250000e+03) (212, 1.49913378906250000000e+03) (213, 1.50000000000000000000e+03) (214, 1.50000000000000000000e+03) (215, 1.50000000000000000000e+03) (216, 1.50000000000000000000e+03) (217, 1.50000000000000000000e+03) (218, 1.50000000000000000000e+03) (219, 1.50000000000000000000e+03) (220, 1.50000000000000000000e+03) (221, 1.50000000000000000000e+03) (222, 6.06329895019531250000e+02) (223, 2.50917480468750000000e+02) (224, 1.50000000000000000000e+03) (225, -1.20900000000000000000e+03) (226, -7.75092285156250000000e+02) (227, -1.50000000000000000000e+03) (228, -1.50000000000000000000e+03) (229, -1.32999548339843750000e+03) (230, 1.50000000000000000000e+03) (231, 1.50000000000000000000e+03) (232, -2.51788345336914062500e+02) (233, 1.50000000000000000000e+03) (234, 1.50000000000000000000e+03) (235, 1.50000000000000000000e+03) (236, 1.50000000000000000000e+03) (237, 1.50000000000000000000e+03) (238, 5.62611755371093750000e+02) (239, -1.14399060058593750000e+03) (240, -8.15981201171875000000e+02) (241, 1.50000000000000000000e+03) (242, 1.50000000000000000000e+03) (243, 1.50000000000000000000e+03) (244, 1.50000000000000000000e+03) (245, 1.50000000000000000000e+03) (246, 1.50000000000000000000e+03) (247, 1.50000000000000000000e+03) (248, 1.50000000000000000000e+03) (249, 1.50000000000000000000e+03) (250, 8.45442871093750000000e+02) (251, 1.50000000000000000000e+03) (252, 1.76538574218750000000e+02) (253, -1.42388378906250000000e+03) (254, 1.50000000000000000000e+03) (255, -1.50000000000000000000e+03) (256, -1.34681457519531250000e+03) (257, -1.69147521972656250000e+02) (258, 2.67705474853515625000e+02) (259, 1.50000000000000000000e+03) (260, 1.50000000000000000000e+03) (261, 1.50000000000000000000e+03) (262, 1.50000000000000000000e+03) (263, 1.50000000000000000000e+03) (264, 1.50000000000000000000e+03) (265, 1.50000000000000000000e+03) (266, 1.50000000000000000000e+03) (267, 1.50000000000000000000e+03) (268, 1.50000000000000000000e+03) (269, 1.50000000000000000000e+03) (270, 1.50000000000000000000e+03) (271, 1.50000000000000000000e+03) (272, 1.50000000000000000000e+03) (273, 1.50000000000000000000e+03) (274, 1.50000000000000000000e+03) (275, 1.50000000000000000000e+03) (276, 1.50000000000000000000e+03) (277, 1.50000000000000000000e+03) (278, 1.50000000000000000000e+03) (279, 1.50000000000000000000e+03) (280, 1.34200012207031250000e+02) (281, 1.26580004882812500000e+03) (282, 1.50000000000000000000e+03) (283, -1.50000000000000000000e+03) (284, 1.50000000000000000000e+03) (285, 1.50000000000000000000e+03) (286, 1.50000000000000000000e+03) (287, 1.50000000000000000000e+03) (288, 1.50000000000000000000e+03) (289, 1.50000000000000000000e+03) (290, 1.50000000000000000000e+03) (291, 1.50000000000000000000e+03) (292, 1.50000000000000000000e+03) (293, 1.50000000000000000000e+03) (294, 1.50000000000000000000e+03) (295, 1.50000000000000000000e+03) (296, 1.50000000000000000000e+03) (297, 1.36826074218750000000e+03) (298, 1.49167016601562500000e+03) (299, 1.46539611816406250000e+03) (300, 1.43752185058593750000e+03) (301, 1.50000000000000000000e+03) (302, 1.50000000000000000000e+03) (303, 1.50000000000000000000e+03) (304, 1.50000000000000000000e+03) (305, 1.50000000000000000000e+03) (306, 1.50000000000000000000e+03) (307, 1.50000000000000000000e+03) (308, 8.00000000000000000000e+02) (309, 1.23794506835937500000e+03) (310, 1.50000000000000000000e+03) (311, -1.33157775878906250000e+03) (312, -3.20771789550781250000e+02) (313, 1.50000000000000000000e+03) (314, 1.50000000000000000000e+03) (315, 1.50000000000000000000e+03) (316, 1.50000000000000000000e+03) (317, 1.50000000000000000000e+03) (318, 1.50000000000000000000e+03) (319, 1.50000000000000000000e+03) (320, 1.50000000000000000000e+03) (321, 1.50000000000000000000e+03) (322, 1.50000000000000000000e+03) (323, 1.50000000000000000000e+03) (324, 1.46705358886718750000e+03) (325, -1.12033081054687500000e+03) (326, -6.19427917480468750000e+02) (327, -8.41817810058593750000e+02) (328, 9.16286682128906250000e+02) (329, -1.37466052246093750000e+03) (330, -9.93067382812500000000e+02) (331, 1.23729174804687500000e+03) (332, -9.44258911132812500000e+02) (333, 1.50000000000000000000e+03) (334, 1.50000000000000000000e+03) (335, 1.50000000000000000000e+03) (336, 1.50000000000000000000e+03) (337, -1.48444799804687500000e+03) (338, 5.76200073242187500000e+02) (339, -8.58461608886718750000e+01) (340, 1.08568371582031250000e+03) (341, 1.50000000000000000000e+03) (342, 1.50000000000000000000e+03) (343, 1.50000000000000000000e+03) (344, 1.50000000000000000000e+03) (345, 1.50000000000000000000e+03) (346, 1.50000000000000000000e+03) (347, 1.50000000000000000000e+03) (348, 1.50000000000000000000e+03) (349, 1.50000000000000000000e+03) (350, 1.50000000000000000000e+03) (351, 1.50000000000000000000e+03) (352, 1.13470507812500000000e+03) (353, -2.93804382324218750000e+02) (354, -5.45480407714843750000e+02) (355, 9.44467163085937500000e+01) (356, -1.25936633300781250000e+03) (357, -1.50000000000000000000e+03) (358, -1.50000000000000000000e+03) (359, -1.50000000000000000000e+03) (360, -1.50000000000000000000e+03) (361, -1.50000000000000000000e+03) (362, 5.00000000000000000000e+02) (363, 1.50000000000000000000e+03) (364, 1.50000000000000000000e+03) (365, -1.36580004882812500000e+03) (366, -3.92613525390625000000e+01) (367, -1.32033044433593750000e+03) (368, 1.50000000000000000000e+03) (369, 1.50000000000000000000e+03) (370, 1.50000000000000000000e+03) (371, 1.50000000000000000000e+03) (372, 1.50000000000000000000e+03) (373, 1.50000000000000000000e+03) (374, 1.50000000000000000000e+03) (375, 1.50000000000000000000e+03) (376, 1.50000000000000000000e+03) (377, 1.50000000000000000000e+03) (378, 1.50000000000000000000e+03) (379, 1.31674560546875000000e+03) (380, 4.55332641601562500000e+02) (381, -9.38716918945312500000e+02) (382, -1.50000000000000000000e+03) (383, -2.84702636718750000000e+02) (384, -1.34494970703125000000e+03) (385, -1.50000000000000000000e+03) (386, -1.50000000000000000000e+03) (387, -1.50000000000000000000e+03) (388, -1.50000000000000000000e+03) (389, -1.50000000000000000000e+03) (390, -1.50000000000000000000e+03) (391, 1.50000000000000000000e+03) (392, 1.50000000000000000000e+03) (393, 1.50000000000000000000e+03) (394, 2.41811706542968750000e+02) (395, -1.50000000000000000000e+03) (396, 1.50000000000000000000e+03) (397, 1.50000000000000000000e+03) (398, 1.50000000000000000000e+03) (399, 1.50000000000000000000e+03) (400, 1.50000000000000000000e+03) (401, -1.44290710449218750000e+03) (402, -1.50000000000000000000e+03) (403, -1.49717504882812500000e+03) (404, 1.46609924316406250000e+03) (405, -6.32331420898437500000e+02) (406, -1.50000000000000000000e+03) (407, -1.50000000000000000000e+03) (408, 1.05651171875000000000e+03) (409, -1.50000000000000000000e+03) (410, -8.52297485351562500000e+02) (411, 1.00431817626953125000e+03) (412, -8.18818176269531250000e+02) (413, -1.50000000000000000000e+03) (414, -1.50000000000000000000e+03) (415, -7.86457641601562500000e+02) (416, -1.24146508789062500000e+03) (417, -1.50000000000000000000e+03) (418, 1.50000000000000000000e+03) (419, 1.50000000000000000000e+03) (420, 1.50000000000000000000e+03) (421, 1.50000000000000000000e+03) (422, 1.50000000000000000000e+03) (423, -1.50000000000000000000e+03) (424, 4.73480529785156250000e+02) (425, 8.53151916503906250000e+02) (426, -1.50000000000000000000e+03) (427, -1.50000000000000000000e+03) (428, -1.50000000000000000000e+03) (429, -1.50000000000000000000e+03) (430, -1.50000000000000000000e+03) (431, -1.50000000000000000000e+03) (432, -1.50000000000000000000e+03) (433, -1.50000000000000000000e+03) (434, -1.50000000000000000000e+03) (435, -1.50000000000000000000e+03) (436, -6.13341796875000000000e+02) (437, 7.52395095825195312500e+01) (438, 1.37763757324218750000e+03) (439, 1.34381176757812500000e+03) (440, 3.73435668945312500000e+01) (441, -1.47015820312500000000e+03) (442, -1.50000000000000000000e+03) (443, -7.09201782226562500000e+02) (444, -7.06314392089843750000e+02) (445, 1.50000000000000000000e+03) (446, 1.50000000000000000000e+03) (447, 1.50000000000000000000e+03) (448, 1.50000000000000000000e+03) (449, 6.75000061035156250000e+02) (450, 1.50000000000000000000e+03) (451, -2.15800048828125000000e+02) (452, -7.65800048828125000000e+02) (453, -1.50000000000000000000e+03) (454, -1.50000000000000000000e+03) (455, -1.50000000000000000000e+03) (456, -1.50000000000000000000e+03) (457, -1.50000000000000000000e+03) (458, -1.50000000000000000000e+03) (459, -1.50000000000000000000e+03) (460, -1.50000000000000000000e+03) (461, -1.50000000000000000000e+03) (462, -1.50000000000000000000e+03) (463, -1.50000000000000000000e+03) (464, 1.41947998046875000000e+03) (465, 7.25470947265625000000e+02) (466, 1.47000000000000000000e+03) (467, 1.23950964355468750000e+03) (468, 1.73227859497070312500e+02) (469, -1.25846710205078125000e+02) (470, -1.50000000000000000000e+03) (471, -1.50000000000000000000e+03) (472, -1.50000000000000000000e+03) (473, -1.06683166503906250000e+03) (474, 4.20613342285156250000e+02) (475, -1.50000000000000000000e+03) (476, 1.50000000000000000000e+03) (477, 1.50000000000000000000e+03) (478, 1.50000000000000000000e+03) (479, -9.52069335937500000000e+02) (480, -1.50000000000000000000e+03) (481, -1.50000000000000000000e+03) (482, -1.50000000000000000000e+03) (483, -1.50000000000000000000e+03) (484, -1.50000000000000000000e+03) (485, -1.50000000000000000000e+03) (486, -1.50000000000000000000e+03) (487, -1.50000000000000000000e+03) (488, -1.50000000000000000000e+03) (489, -1.50000000000000000000e+03) (490, -1.50000000000000000000e+03) (491, -1.50000000000000000000e+03) (492, -1.50000000000000000000e+03) (493, 1.48512670898437500000e+03) (494, 5.66921264648437500000e+02) (495, -7.96779174804687500000e+02) (496, -6.23178161621093750000e+02) (497, -1.29033569335937500000e+03) (498, -1.50000000000000000000e+03) (499, -1.50000000000000000000e+03) (500, -1.50000000000000000000e+03) (501, -1.50000000000000000000e+03) (502, -1.50000000000000000000e+03) (503, -1.50000000000000000000e+03) (504, 1.50000000000000000000e+03) (505, -1.50000000000000000000e+03) (506, 9.40800048828125000000e+02) (507, 3.92666229248046875000e+02) (508, -1.50000000000000000000e+03) (509, -1.50000000000000000000e+03) (510, -1.50000000000000000000e+03) (511, -1.50000000000000000000e+03) (512, -1.50000000000000000000e+03) (513, -1.50000000000000000000e+03) (514, -1.50000000000000000000e+03) (515, -1.50000000000000000000e+03) (516, -1.50000000000000000000e+03) (517, -1.50000000000000000000e+03) (518, -1.50000000000000000000e+03) (519, -1.50000000000000000000e+03) (520, -1.50000000000000000000e+03) (521, -1.50000000000000000000e+03) (522, -1.05717993164062500000e+03) (523, -8.28881713867187500000e+02) (524, -4.24856964111328125000e+02) (525, -1.50000000000000000000e+03) (526, -1.50000000000000000000e+03) (527, -1.50000000000000000000e+03) (528, -1.50000000000000000000e+03) (529, -1.50000000000000000000e+03) (530, -1.50000000000000000000e+03) (531, -1.50000000000000000000e+03) (532, 1.50000000000000000000e+03) (533, -1.50000000000000000000e+03) (534, -5.91999511718750000000e+01) (535, -9.19995117187500000000e+00) (536, -1.50000000000000000000e+03) (537, -1.50000000000000000000e+03) (538, -1.37277441406250000000e+03) (539, -7.02931335449218750000e+02) (540, -1.50000000000000000000e+03) (541, -1.50000000000000000000e+03) (542, -1.50000000000000000000e+03) (543, -1.50000000000000000000e+03) (544, -1.50000000000000000000e+03) (545, -1.50000000000000000000e+03) (546, -1.50000000000000000000e+03) (547, -1.50000000000000000000e+03) (548, -1.50000000000000000000e+03) (549, -1.50000000000000000000e+03) (550, -1.50000000000000000000e+03) (551, -5.67906494140625000000e+02) (552, -1.50000000000000000000e+03) (553, -1.50000000000000000000e+03) (554, -1.50000000000000000000e+03) (555, -1.50000000000000000000e+03) (556, -1.50000000000000000000e+03) (557, -1.50000000000000000000e+03) (558, -1.50000000000000000000e+03) (559, -1.50000000000000000000e+03) (560, 1.50000000000000000000e+03) (561, -1.50000000000000000000e+03) (562, 2.65800048828125000000e+02) (563, 3.56261352539062500000e+02) (564, -1.06987524414062500000e+03) (565, -1.50000000000000000000e+03) (566, -1.37277441406250000000e+03) (567, -8.93604087829589843750e+00) (568, 7.54993225097656250000e+02) (569, -1.50000000000000000000e+03) (570, -1.50000000000000000000e+03) (571, -1.50000000000000000000e+03) (572, -1.50000000000000000000e+03) (573, -1.50000000000000000000e+03) (574, -1.50000000000000000000e+03) (575, -1.50000000000000000000e+03) (576, -1.50000000000000000000e+03) (577, -1.50000000000000000000e+03) (578, -1.50000000000000000000e+03) (579, -1.40880541992187500000e+03) (580, -6.72144226074218750000e+02) (581, -1.50000000000000000000e+03) (582, -1.50000000000000000000e+03) (583, -1.50000000000000000000e+03) (584, -1.50000000000000000000e+03) (585, -1.50000000000000000000e+03) (586, -1.50000000000000000000e+03) (587, 1.50000000000000000000e+03) (588, 1.50000000000000000000e+03) (589, 1.50000000000000000000e+03) (590, 1.50000000000000000000e+03) (591, 1.04080004882812500000e+03) (592, 6.78356872558593750000e+02) (593, -1.50000000000000000000e+03) (594, -1.50000000000000000000e+03) (595, 8.03384399414062500000e+02) (596, 1.03160559082031250000e+03) (597, -1.84296951293945312500e+02) (598, -5.94111083984375000000e+02) (599, 1.13863330078125000000e+03) (600, 7.45924224853515625000e+01) (601, -8.24969055175781250000e+02) (602, -6.91389221191406250000e+02) (603, 1.43602941894531250000e+03) (604, 1.47714160156250000000e+03) (605, 6.46329650878906250000e+02) (606, 1.46425207519531250000e+03) (607, -1.48950524902343750000e+03) (608, 1.37451574707031250000e+03) (609, -1.50000000000000000000e+03) (610, -1.50000000000000000000e+03) (611, -1.50000000000000000000e+03) (612, -1.50000000000000000000e+03) (613, -1.50000000000000000000e+03) (614, -1.50000000000000000000e+03) (615, 1.50000000000000000000e+03) (616, 1.50000000000000000000e+03) (617, 1.50000000000000000000e+03) (618, 1.50000000000000000000e+03) (619, -9.02843261718750000000e+02) (620, -1.50000000000000000000e+03) (621, -1.50000000000000000000e+03) (622, -1.49224902343750000000e+03) (623, -2.82627197265625000000e+02) (624, 1.99696014404296875000e+02) (625, 1.15053674316406250000e+03) (626, 1.50000000000000000000e+03) (627, 1.50000000000000000000e+03) (628, 1.50000000000000000000e+03) (629, 1.50000000000000000000e+03) (630, 1.50000000000000000000e+03) (631, 1.50000000000000000000e+03) (632, 1.50000000000000000000e+03) (633, 1.48133764648437500000e+03) (634, 1.47000000000000000000e+03) (635, 8.84477600097656250000e+02) (636, 2.05159606933593750000e+01) (637, -1.50000000000000000000e+03) (638, -1.50000000000000000000e+03) (639, -1.50000000000000000000e+03) (640, -1.50000000000000000000e+03) (641, -1.50000000000000000000e+03) (642, -1.50000000000000000000e+03) (643, 1.50000000000000000000e+03) (644, 1.50000000000000000000e+03) (645, 3.40800048828125000000e+02) (646, -5.91999511718750000000e+01) (647, -1.50000000000000000000e+03) (648, -1.50000000000000000000e+03) (649, -1.50000000000000000000e+03) (650, -1.15234020996093750000e+03) (651, 4.78511535644531250000e+02) (652, 1.47000000000000000000e+03) (653, 1.50000000000000000000e+03) (654, 1.50000000000000000000e+03) (655, 1.50000000000000000000e+03) (656, 1.50000000000000000000e+03) (657, 1.50000000000000000000e+03) (658, 1.50000000000000000000e+03) (659, 1.50000000000000000000e+03) (660, 1.50000000000000000000e+03) (661, 1.50000000000000000000e+03) (662, 1.50000000000000000000e+03) (663, 1.25141853332519531250e+02) (664, -1.50000000000000000000e+03) (665, -1.06580004882812500000e+03) (666, 6.48692749023437500000e+02) (667, 1.50000000000000000000e+03) (668, -1.50000000000000000000e+03) (669, -1.50000000000000000000e+03) (670, -1.50000000000000000000e+03) (671, 1.50000000000000000000e+03) (672, 1.50000000000000000000e+03) (673, 1.50000000000000000000e+03) (674, 1.50000000000000000000e+03) (675, -1.50000000000000000000e+03) (676, -1.50000000000000000000e+03) (677, -1.50000000000000000000e+03) (678, -1.50000000000000000000e+03) (679, 1.10660009765625000000e+03) (680, 1.43400000000000000000e+03) (681, 1.50000000000000000000e+03) (682, 1.50000000000000000000e+03) (683, 1.50000000000000000000e+03) (684, 1.50000000000000000000e+03) (685, 1.50000000000000000000e+03) (686, 1.50000000000000000000e+03) (687, 1.50000000000000000000e+03) (688, 1.50000000000000000000e+03) (689, 1.50000000000000000000e+03) (690, 1.50000000000000000000e+03) (691, 8.41999511718750000000e+01) (692, 3.84199951171875000000e+02) (693, 1.50000000000000000000e+03) (694, 1.50000000000000000000e+03) (695, 1.50000000000000000000e+03) (696, 1.50000000000000000000e+03) (697, -1.50000000000000000000e+03) (698, 1.50000000000000000000e+03) (699, 1.50000000000000000000e+03) (700, 1.50000000000000000000e+03) (701, 1.50000000000000000000e+03) (702, 1.50000000000000000000e+03) (703, -1.50000000000000000000e+03) (704, 1.50000000000000000000e+03) (705, 1.50000000000000000000e+03) (706, 1.50000000000000000000e+03) (707, 1.50000000000000000000e+03) (708, 1.50000000000000000000e+03) (709, 1.50000000000000000000e+03) (710, 1.50000000000000000000e+03) (711, 1.50000000000000000000e+03) (712, 1.50000000000000000000e+03) (713, 1.50000000000000000000e+03) (714, 1.50000000000000000000e+03) (715, 1.50000000000000000000e+03) (716, 1.50000000000000000000e+03) (717, 8.03432067871093750000e+02) (718, 5.05926513671875000000e+02) (719, 1.18273852539062500000e+03) (720, 1.50000000000000000000e+03) (721, 1.50000000000000000000e+03) (722, 2.31337615966796875000e+02) (723, 1.50000000000000000000e+03) (724, 1.25742407226562500000e+03) (725, -7.69885437011718750000e+02) (726, 1.50000000000000000000e+03) (727, 1.50000000000000000000e+03) (728, 1.50000000000000000000e+03) (729, 1.50000000000000000000e+03) (730, 1.50000000000000000000e+03) (731, 1.50000000000000000000e+03) (732, 1.50000000000000000000e+03) (733, 1.50000000000000000000e+03) (734, 1.50000000000000000000e+03) (735, 1.50000000000000000000e+03) (736, 1.50000000000000000000e+03) (737, 1.50000000000000000000e+03) (738, 3.52599975585937500000e+02) (739, -1.01580004882812500000e+03) (740, -1.39134570312500000000e+03) (741, -1.40900000000000000000e+03) (742, -1.41631994628906250000e+03) (743, -9.65800048828125000000e+02) (744, -8.15800048828125000000e+02) (745, -5.65800048828125000000e+02) (746, -4.15800048828125000000e+02) (747, -3.16885986328125000000e+02) (748, -1.11634997558593750000e+03) (749, -1.21721630859375000000e+03) (750, 1.41395800781250000000e+03) (751, 6.78887390136718750000e+02) (752, 4.90800048828125000000e+02) (753, 1.50000000000000000000e+03) (754, 1.50000000000000000000e+03) (755, 1.50000000000000000000e+03) (756, 1.50000000000000000000e+03) (757, 1.50000000000000000000e+03) (758, 1.50000000000000000000e+03) (759, 1.50000000000000000000e+03) (760, 1.50000000000000000000e+03) (761, 1.50000000000000000000e+03) (762, 1.02500000000000000000e+03) (763, -1.50000000000000000000e+03) (764, -1.50000000000000000000e+03) (765, -3.65800048828125000000e+02) (766, 9.85274597167968750000e+02) (767, 1.47500000000000000000e+03) (768, 5.03946990966796875000e+01) (769, -5.77087898254394531250e+01) (770, -1.50000000000000000000e+03) (771, -3.65800048828125000000e+02) (772, 9.84199951171875000000e+02) (773, 7.83515014648437500000e+01) (774, -1.01126135253906250000e+03) (775, -4.90800048828125000000e+02) (776, -5.15800048828125000000e+02) (777, -1.46414013671875000000e+03) (778, 1.50000000000000000000e+03) (779, 1.50000000000000000000e+03) (780, 1.50000000000000000000e+03) (781, 1.50000000000000000000e+03) (782, 1.50000000000000000000e+03) (783, 1.50000000000000000000e+03) (784, -1.49900891113281250000e+03) (0, 1.50000000000000000000e+03) (1, 1.50000000000000000000e+03) (2, 1.50000000000000000000e+03) (3, 1.50000000000000000000e+03) (4, 1.50000000000000000000e+03) (5, 1.50000000000000000000e+03) (6, 1.50000000000000000000e+03) (7, 1.50000000000000000000e+03) (8, 1.50000000000000000000e+03) (9, 1.50000000000000000000e+03) (10, 1.50000000000000000000e+03) (11, 1.50000000000000000000e+03) (12, 1.50000000000000000000e+03) (13, 1.50000000000000000000e+03) (14, 1.50000000000000000000e+03) (15, 1.50000000000000000000e+03) (16, 1.50000000000000000000e+03) (17, 1.50000000000000000000e+03) (18, 1.50000000000000000000e+03) (19, 1.50000000000000000000e+03) (20, 1.50000000000000000000e+03) (21, 1.50000000000000000000e+03) (22, 1.50000000000000000000e+03) (23, 1.50000000000000000000e+03) (24, 1.50000000000000000000e+03) (25, 1.50000000000000000000e+03) (26, 1.50000000000000000000e+03) (27, 1.50000000000000000000e+03) (28, 1.50000000000000000000e+03) (29, 1.50000000000000000000e+03) (30, 1.50000000000000000000e+03) (31, 1.50000000000000000000e+03) (32, 1.50000000000000000000e+03) (33, 1.50000000000000000000e+03) (34, 1.50000000000000000000e+03) (35, 1.50000000000000000000e+03) (36, 1.50000000000000000000e+03) (37, 1.09080004882812500000e+03) (38, -1.37217175292968750000e+03) (39, -1.50000000000000000000e+03) (40, -1.50000000000000000000e+03) (41, -1.50000000000000000000e+03) (42, -1.50000000000000000000e+03) (43, -1.50000000000000000000e+03) (44, -1.40900000000000000000e+03) (45, -5.15800048828125000000e+02) (46, -5.15800048828125000000e+02) (47, 5.84199951171875000000e+02) (48, 6.34199951171875000000e+02) (49, 1.50000000000000000000e+03) (50, 1.50000000000000000000e+03) (51, 1.50000000000000000000e+03) (52, 1.50000000000000000000e+03) (53, 1.50000000000000000000e+03) (54, 1.50000000000000000000e+03) (55, 1.50000000000000000000e+03) (56, 1.50000000000000000000e+03) (57, 1.50000000000000000000e+03) (58, 1.50000000000000000000e+03) (59, 1.50000000000000000000e+03) (60, 1.50000000000000000000e+03) (61, 1.50000000000000000000e+03) (62, 6.90800048828125000000e+02) (63, 8.06600097656250000000e+02) (64, 2.70329193115234375000e+02) (65, 3.37738586425781250000e+02) (66, 1.02330853271484375000e+03) (67, 1.50000000000000000000e+03) (68, -1.58000488281250000000e+01) (69, -1.09725134277343750000e+03) (70, 1.50000000000000000000e+03) (71, 3.93738647460937500000e+02) (72, 1.50000000000000000000e+03) (73, 1.50000000000000000000e+03) (74, 1.50000000000000000000e+03) (75, 1.50000000000000000000e+03) (76, -1.94661376953125000000e+02) (77, 9.08000488281250000000e+01) (78, 7.75000061035156250000e+02) (79, 1.19793872070312500000e+03) (80, 1.50000000000000000000e+03) (81, 1.50000000000000000000e+03) (82, 1.50000000000000000000e+03) (83, 1.50000000000000000000e+03) (84, 1.50000000000000000000e+03) (85, 1.50000000000000000000e+03) (86, 1.50000000000000000000e+03) (87, 1.50000000000000000000e+03) (88, -1.50000000000000000000e+03) (89, -1.50000000000000000000e+03) (90, 1.00204360961914062500e+02) (91, 6.75000061035156250000e+02) (92, 1.71938537597656250000e+02) (93, 1.50000000000000000000e+03) (94, 1.50000000000000000000e+03) (95, 3.73660156250000000000e+02) (96, 1.39227319335937500000e+03) (97, -1.15031799316406250000e+02) (98, 1.25989794921875000000e+03) (99, 1.16419360351562500000e+03) (100, 1.06381018066406250000e+03) (101, 1.50000000000000000000e+03) (102, 9.05461364746093750000e+02) (103, -1.01215563964843750000e+03) (104, -9.09199951171875000000e+02) (105, -1.50000000000000000000e+03) (106, -1.50000000000000000000e+03) (107, 7.28850708007812500000e+02) (108, 1.19080004882812500000e+03) (109, 1.47713232421875000000e+03) (110, -3.50077239990234375000e+02) (111, 1.50000000000000000000e+03) (112, 1.50000000000000000000e+03) (113, 1.50000000000000000000e+03) (114, 1.50000000000000000000e+03) (115, 1.50000000000000000000e+03) (116, -3.65800048828125000000e+02) (117, 2.10738464355468750000e+02) (118, 7.90270751953125000000e+02) (119, 1.50000000000000000000e+03) (120, 1.50000000000000000000e+03) (121, 1.50000000000000000000e+03) (122, 1.50000000000000000000e+03) (123, 1.23133984375000000000e+03) (124, -1.18026135253906250000e+03) (125, -1.47500000000000000000e+03) (126, -1.50000000000000000000e+03) (127, -1.50000000000000000000e+03) (128, -1.50000000000000000000e+03) (129, -1.50000000000000000000e+03) (130, -1.50000000000000000000e+03) (131, -2.60854980468750000000e+02) (132, -7.06057739257812500000e+02) (133, -1.50000000000000000000e+03) (134, -1.50000000000000000000e+03) (135, 3.34661376953125000000e+02) (136, 7.39291015625000000000e+02) (137, -5.19045166015625000000e+02) (138, -1.50000000000000000000e+03) (139, 1.50000000000000000000e+03) (140, 1.50000000000000000000e+03) (141, 8.10738647460937500000e+02) (142, -5.74861328125000000000e+02) (143, 1.32149145507812500000e+03) (144, -1.50000000000000000000e+03) (145, -2.30338043212890625000e+02) (146, -3.15800048828125000000e+02) (147, 1.16937377929687500000e+03) (148, 1.46916003417968750000e+03) (149, -1.47582360839843750000e+03) (150, -9.52845825195312500000e+02) (151, -1.46578564453125000000e+03) (152, -1.47500000000000000000e+03) (153, -1.47500000000000000000e+03) (154, -1.50000000000000000000e+03) (155, -1.50000000000000000000e+03) (156, -1.50000000000000000000e+03) (157, -1.50000000000000000000e+03) (158, -1.50000000000000000000e+03) (159, -1.50000000000000000000e+03) (160, -1.50000000000000000000e+03) (161, -1.50000000000000000000e+03) (162, -1.50000000000000000000e+03) (163, -1.50000000000000000000e+03) (164, -1.50000000000000000000e+03) (165, -1.50000000000000000000e+03) (166, -1.50000000000000000000e+03) (167, 1.50000000000000000000e+03) (168, 1.50000000000000000000e+03) (169, 1.50000000000000000000e+03) (170, 1.50000000000000000000e+03) (171, -1.12402978515625000000e+03) (172, -1.50000000000000000000e+03) (173, -1.50000000000000000000e+03) (174, -2.41276077270507812500e+02) (175, 9.71110290527343750000e+02) (176, 1.47150451660156250000e+03) (177, -1.34001708984375000000e+03) (178, -1.42206909179687500000e+03) (179, -1.48470043945312500000e+03) (180, -1.36211950683593750000e+03) (181, -1.44794006347656250000e+03) (182, -1.42341223144531250000e+03) (183, -1.47500000000000000000e+03) (184, -1.50000000000000000000e+03) (185, -1.50000000000000000000e+03) (186, -1.50000000000000000000e+03) (187, -1.11070043945312500000e+03) (188, -1.25922827148437500000e+03) (189, -1.50000000000000000000e+03) (190, -1.50000000000000000000e+03) (191, -1.50000000000000000000e+03) (192, -1.50000000000000000000e+03) (193, -1.50000000000000000000e+03) (194, -1.40000000000000000000e+03) (195, -9.56800048828125000000e+02) (196, 1.50000000000000000000e+03) (197, 1.50000000000000000000e+03) (198, 1.50000000000000000000e+03) (199, 1.45128002929687500000e+03) (200, 1.50000000000000000000e+03) (201, 1.46942407226562500000e+03) (202, 1.50000000000000000000e+03) (203, 1.50000000000000000000e+03) (204, 1.49976000976562500000e+03) (205, -1.09535144042968750000e+03) (206, -1.44617810058593750000e+03) (207, 7.77071914672851562500e+01) (208, 1.04094860839843750000e+03) (209, 1.48919824218750000000e+03) (210, 1.50000000000000000000e+03) (211, 1.50000000000000000000e+03) (212, 1.49696887207031250000e+03) (213, 1.36852282714843750000e+03) (214, -1.42518310546875000000e+03) (215, 7.44210083007812500000e+02) (216, -1.00698797607421875000e+03) (217, -1.11119995117187500000e+03) (218, -1.50000000000000000000e+03) (219, -1.50000000000000000000e+03) (220, -1.50000000000000000000e+03) (221, -1.50000000000000000000e+03) (222, -1.50000000000000000000e+03) (223, -6.51261352539062500000e+02) (224, 1.50000000000000000000e+03) (225, 1.50000000000000000000e+03) (226, 1.50000000000000000000e+03) (227, 1.50000000000000000000e+03) (228, 1.50000000000000000000e+03) (229, 1.50000000000000000000e+03) (230, 1.50000000000000000000e+03) (231, 1.50000000000000000000e+03) (232, 1.18387353515625000000e+03) (233, -4.61827545166015625000e+02) (234, 1.46232775878906250000e+03) (235, 1.50000000000000000000e+03) (236, 5.87683044433593750000e+02) (237, 1.50000000000000000000e+03) (238, 1.50000000000000000000e+03) (239, 1.50000000000000000000e+03) (240, 1.49983691406250000000e+03) (241, 1.48767846679687500000e+03) (242, 2.45937332153320312500e+02) (243, -1.03921826171875000000e+03) (244, -1.05918640136718750000e+03) (245, -5.38653930664062500000e+02) (246, -1.42506958007812500000e+03) (247, -1.50000000000000000000e+03) (248, -1.50000000000000000000e+03) (249, -1.50000000000000000000e+03) (250, -1.50000000000000000000e+03) (251, -1.44500000000000000000e+03) (252, 1.50000000000000000000e+03) (253, 1.50000000000000000000e+03) (254, 1.50000000000000000000e+03) (255, -1.22933569335937500000e+03) (256, 1.50000000000000000000e+03) (257, 1.50000000000000000000e+03) (258, 1.50000000000000000000e+03) (259, -3.81563049316406250000e+02) (260, -1.19597802734375000000e+03) (261, 1.11006408691406250000e+03) (262, 1.48959521484375000000e+03) (263, 1.50000000000000000000e+03) (264, 1.50000000000000000000e+03) (265, 1.36463330078125000000e+03) (266, 1.50000000000000000000e+03) (267, 1.49976000976562500000e+03) (268, 8.02975341796875000000e+02) (269, -1.04623327636718750000e+03) (270, 1.50000000000000000000e+03) (271, -1.45677642822265625000e+02) (272, 5.73192138671875000000e+02) (273, -1.30154882812500000000e+03) (274, -1.36339990234375000000e+03) (275, -1.50000000000000000000e+03) (276, -1.50000000000000000000e+03) (277, -1.50000000000000000000e+03) (278, -1.50000000000000000000e+03) (279, -1.50000000000000000000e+03) (280, 1.50000000000000000000e+03) (281, 1.21580004882812500000e+03) (282, 1.50000000000000000000e+03) (283, -1.46214855957031250000e+03) (284, 1.50000000000000000000e+03) (285, 1.50000000000000000000e+03) (286, -1.62665069580078125000e+02) (287, -1.29717468261718750000e+03) (288, 1.41770043945312500000e+03) (289, 2.76427154541015625000e+02) (290, -1.38386865234375000000e+03) (291, -1.24529089355468750000e+03) (292, -1.05111145019531250000e+03) (293, -1.48105224609375000000e+03) (294, -1.70099121093750000000e+02) (295, 8.14839843750000000000e+02) (296, 1.50000000000000000000e+03) (297, 1.50000000000000000000e+03) (298, 1.50000000000000000000e+03) (299, 1.50000000000000000000e+03) (300, 1.50000000000000000000e+03) (301, -5.18208801269531250000e+02) (302, -1.50000000000000000000e+03) (303, -1.50000000000000000000e+03) (304, -1.50000000000000000000e+03) (305, -1.50000000000000000000e+03) (306, -1.50000000000000000000e+03) (307, -1.50000000000000000000e+03) (308, 1.50000000000000000000e+03) (309, 1.50000000000000000000e+03) (310, 1.50000000000000000000e+03) (311, 1.50000000000000000000e+03) (312, 1.50000000000000000000e+03) (313, 1.20756127929687500000e+03) (314, 1.17872509765625000000e+03) (315, -4.78244262695312500000e+02) (316, 8.24426208496093750000e+02) (317, -1.48133764648437500000e+03) (318, -1.50000000000000000000e+03) (319, -1.50000000000000000000e+03) (320, -1.50000000000000000000e+03) (321, -1.50000000000000000000e+03) (322, -1.50000000000000000000e+03) (323, -7.55642211914062500000e+02) (324, 1.50000000000000000000e+03) (325, 1.50000000000000000000e+03) (326, 1.50000000000000000000e+03) (327, 1.50000000000000000000e+03) (328, 1.50000000000000000000e+03) (329, 1.50000000000000000000e+03) (330, -1.38405114746093750000e+03) (331, -1.50000000000000000000e+03) (332, 1.49249438476562500000e+03) (333, -1.50000000000000000000e+03) (334, 9.87477233886718750000e+02) (335, -1.50000000000000000000e+03) (336, 1.50000000000000000000e+03) (337, 1.50000000000000000000e+03) (338, 1.50000000000000000000e+03) (339, 1.50000000000000000000e+03) (340, 1.50000000000000000000e+03) (341, -6.08071594238281250000e+02) (342, -9.37840942382812500000e+02) (343, 3.59656646728515625000e+02) (344, -6.99113647460937500000e+02) (345, -1.50000000000000000000e+03) (346, -1.50000000000000000000e+03) (347, -1.50000000000000000000e+03) (348, -1.50000000000000000000e+03) (349, -1.50000000000000000000e+03) (350, -1.50000000000000000000e+03) (351, -1.47086132812500000000e+03) (352, 1.50000000000000000000e+03) (353, 1.50000000000000000000e+03) (354, 1.50000000000000000000e+03) (355, 1.50000000000000000000e+03) (356, 1.46892407226562500000e+03) (357, 5.27991149902343750000e+02) (358, -1.38405114746093750000e+03) (359, -1.16429406738281250000e+03) (360, 9.46028198242187500000e+02) (361, 9.65063232421875000000e+02) (362, 1.50000000000000000000e+03) (363, 1.50000000000000000000e+03) (364, 1.50000000000000000000e+03) (365, 1.50000000000000000000e+03) (366, 1.50000000000000000000e+03) (367, 1.50000000000000000000e+03) (368, 1.50000000000000000000e+03) (369, -1.77689865112304687500e+02) (370, -1.01552539062500000000e+03) (371, 1.13081005859375000000e+03) (372, -1.38755590820312500000e+03) (373, -1.50000000000000000000e+03) (374, -1.50000000000000000000e+03) (375, -1.50000000000000000000e+03) (376, -1.50000000000000000000e+03) (377, -1.50000000000000000000e+03) (378, -1.50000000000000000000e+03) (379, 1.14123107910156250000e+03) (380, 1.50000000000000000000e+03) (381, 1.50000000000000000000e+03) (382, 1.50000000000000000000e+03) (383, 1.50000000000000000000e+03) (384, 3.09002777099609375000e+02) (385, 9.77007080078125000000e+02) (386, -1.45168798828125000000e+03) (387, -1.37927148437500000000e+03) (388, -1.47500000000000000000e+03) (389, -1.15800048828125000000e+02) (390, 1.50000000000000000000e+03) (391, 1.50000000000000000000e+03) (392, 1.50000000000000000000e+03) (393, 1.50000000000000000000e+03) (394, 1.50000000000000000000e+03) (395, 8.31800048828125000000e+02) (396, 1.36102050781250000000e+03) (397, 1.13471337890625000000e+03) (398, 1.46685070800781250000e+03) (399, 1.50000000000000000000e+03) (400, -1.47500000000000000000e+03) (401, -1.50000000000000000000e+03) (402, -1.50000000000000000000e+03) (403, -1.50000000000000000000e+03) (404, -1.50000000000000000000e+03) (405, -1.50000000000000000000e+03) (406, -1.50000000000000000000e+03) (407, 1.50000000000000000000e+03) (408, 1.50000000000000000000e+03) (409, 1.50000000000000000000e+03) (410, 1.50000000000000000000e+03) (411, 1.22969079589843750000e+03) (412, -6.41115173339843750000e+02) (413, -5.84213073730468750000e+02) (414, -1.45168798828125000000e+03) (415, -1.50000000000000000000e+03) (416, -1.50000000000000000000e+03) (417, -1.15800048828125000000e+02) (418, 1.50000000000000000000e+03) (419, 1.50000000000000000000e+03) (420, 1.50000000000000000000e+03) (421, 1.50000000000000000000e+03) (422, -1.50000000000000000000e+03) (423, 1.11226135253906250000e+03) (424, 1.01525457763671875000e+03) (425, 1.50000000000000000000e+03) (426, 1.50000000000000000000e+03) (427, 1.50000000000000000000e+03) (428, -7.59477233886718750000e+02) (429, -1.50000000000000000000e+03) (430, -1.50000000000000000000e+03) (431, -1.50000000000000000000e+03) (432, -1.46395812988281250000e+03) (433, -1.48418884277343750000e+03) (434, 1.50000000000000000000e+03) (435, 1.50000000000000000000e+03) (436, 1.50000000000000000000e+03) (437, 1.50000000000000000000e+03) (438, 1.50000000000000000000e+03) (439, -6.42793273925781250000e+02) (440, -8.62492614746093750000e+02) (441, -1.39488513183593750000e+03) (442, -1.47500000000000000000e+03) (443, -1.50000000000000000000e+03) (444, -1.50000000000000000000e+03) (445, 1.50000000000000000000e+03) (446, 1.50000000000000000000e+03) (447, 1.50000000000000000000e+03) (448, 1.50000000000000000000e+03) (449, -1.50000000000000000000e+03) (450, -1.50000000000000000000e+03) (451, 5.90800048828125000000e+02) (452, -5.02377807617187500000e+02) (453, 1.50000000000000000000e+03) (454, 1.50000000000000000000e+03) (455, 1.50000000000000000000e+03) (456, 1.18654931640625000000e+03) (457, 6.78356445312500000000e+02) (458, 1.44178942871093750000e+03) (459, 1.50000000000000000000e+03) (460, 1.50000000000000000000e+03) (461, 1.50000000000000000000e+03) (462, 1.50000000000000000000e+03) (463, 1.50000000000000000000e+03) (464, 1.50000000000000000000e+03) (465, 1.50000000000000000000e+03) (466, 1.50000000000000000000e+03) (467, -1.02576782226562500000e+03) (468, -1.11389843750000000000e+03) (469, -1.47500000000000000000e+03) (470, -1.50000000000000000000e+03) (471, -1.50000000000000000000e+03) (472, -9.97160583496093750000e+02) (473, 1.50000000000000000000e+03) (474, 1.50000000000000000000e+03) (475, 1.50000000000000000000e+03) (476, 1.50000000000000000000e+03) (477, 1.50000000000000000000e+03) (478, -1.50000000000000000000e+03) (479, 1.90800048828125000000e+02) (480, -1.28953356933593750000e+03) (481, 1.50000000000000000000e+03) (482, 1.50000000000000000000e+03) (483, 1.40277954101562500000e+03) (484, 1.42649914550781250000e+03) (485, 1.50000000000000000000e+03) (486, 1.50000000000000000000e+03) (487, 1.50000000000000000000e+03) (488, 1.50000000000000000000e+03) (489, 1.50000000000000000000e+03) (490, 1.50000000000000000000e+03) (491, 1.50000000000000000000e+03) (492, 1.50000000000000000000e+03) (493, 1.48988696289062500000e+03) (494, -1.47997131347656250000e+03) (495, -1.46578564453125000000e+03) (496, -1.47500000000000000000e+03) (497, -1.50000000000000000000e+03) (498, -1.50000000000000000000e+03) (499, -1.50000000000000000000e+03) (500, 1.50000000000000000000e+03) (501, 1.50000000000000000000e+03) (502, 1.50000000000000000000e+03) (503, 1.50000000000000000000e+03) (504, 1.50000000000000000000e+03) (505, 1.50000000000000000000e+03) (506, -1.50000000000000000000e+03) (507, -1.50000000000000000000e+03) (508, 6.80477111816406250000e+02) (509, 1.50000000000000000000e+03) (510, -7.17718994140625000000e+02) (511, -1.44500000000000000000e+03) (512, -1.44500000000000000000e+03) (513, -1.25126135253906250000e+03) (514, 1.50000000000000000000e+03) (515, 1.50000000000000000000e+03) (516, 1.50000000000000000000e+03) (517, 1.50000000000000000000e+03) (518, 1.50000000000000000000e+03) (519, 1.50000000000000000000e+03) (520, 1.50000000000000000000e+03) (521, -1.50000000000000000000e+03) (522, -1.50000000000000000000e+03) (523, -1.50000000000000000000e+03) (524, -1.50000000000000000000e+03) (525, -1.50000000000000000000e+03) (526, -1.50000000000000000000e+03) (527, -8.24800048828125000000e+02) (528, 1.50000000000000000000e+03) (529, 1.50000000000000000000e+03) (530, 1.39080004882812500000e+03) (531, 1.50000000000000000000e+03) (532, 1.50000000000000000000e+03) (533, 1.50000000000000000000e+03) (534, -1.58000488281250000000e+01) (535, -1.41868798828125000000e+03) (536, 3.11242919921875000000e+02) (537, 1.18539465332031250000e+03) (538, -1.18892333984375000000e+03) (539, -1.50000000000000000000e+03) (540, -1.50000000000000000000e+03) (541, -1.50000000000000000000e+03) (542, -1.47500000000000000000e+03) (543, -1.48906677246093750000e+03) (544, 1.50000000000000000000e+03) (545, 1.50000000000000000000e+03) (546, 1.50000000000000000000e+03) (547, 1.50000000000000000000e+03) (548, 1.49414050292968750000e+03) (549, -1.50000000000000000000e+03) (550, -1.50000000000000000000e+03) (551, -1.50000000000000000000e+03) (552, -1.50000000000000000000e+03) (553, -1.50000000000000000000e+03) (554, -1.50000000000000000000e+03) (555, 8.90614624023437500000e+01) (556, 1.21506127929687500000e+03) (557, 1.49890136718750000000e+03) (558, -2.15800048828125000000e+02) (559, 1.50000000000000000000e+03) (560, 1.50000000000000000000e+03) (561, 1.50000000000000000000e+03) (562, -1.56918457031250000000e+02) (563, -1.16580004882812500000e+03) (564, -1.25126135253906250000e+03) (565, -6.46061462402343750000e+02) (566, -1.50000000000000000000e+03) (567, -1.50000000000000000000e+03) (568, -1.50000000000000000000e+03) (569, -1.50000000000000000000e+03) (570, -1.50000000000000000000e+03) (571, -1.40900000000000000000e+03) (572, -1.00700616455078125000e+03) (573, 1.50000000000000000000e+03) (574, 1.29788769531250000000e+03) (575, -1.47606323242187500000e+03) (576, -1.50000000000000000000e+03) (577, -1.50000000000000000000e+03) (578, -1.50000000000000000000e+03) (579, -1.47500000000000000000e+03) (580, -1.50000000000000000000e+03) (581, -1.50000000000000000000e+03) (582, -1.47536572265625000000e+03) (583, 1.50000000000000000000e+03) (584, 1.50000000000000000000e+03) (585, 1.50000000000000000000e+03) (586, 1.50000000000000000000e+03) (587, 1.50000000000000000000e+03) (588, 1.50000000000000000000e+03) (589, 1.50000000000000000000e+03) (590, -1.50000000000000000000e+03) (591, -1.22080004882812500000e+03) (592, -1.46040002441406250000e+03) (593, -1.46040002441406250000e+03) (594, -1.50000000000000000000e+03) (595, -1.50000000000000000000e+03) (596, -1.50000000000000000000e+03) (597, -1.50000000000000000000e+03) (598, -1.50000000000000000000e+03) (599, -1.47627856445312500000e+03) (600, -1.48663281250000000000e+03) (601, -1.46578564453125000000e+03) (602, -1.50000000000000000000e+03) (603, -1.50000000000000000000e+03) (604, -1.50000000000000000000e+03) (605, -1.50000000000000000000e+03) (606, -1.50000000000000000000e+03) (607, -1.50000000000000000000e+03) (608, -1.50000000000000000000e+03) (609, -1.50000000000000000000e+03) (610, 1.50000000000000000000e+03) (611, 1.50000000000000000000e+03) (612, 1.50000000000000000000e+03) (613, 1.50000000000000000000e+03) (614, 1.50000000000000000000e+03) (615, 1.50000000000000000000e+03) (616, 1.50000000000000000000e+03) (617, 1.50000000000000000000e+03) (618, -1.50000000000000000000e+03) (619, 1.10533862304687500000e+03) (620, 1.50000000000000000000e+03) (621, -1.42139086914062500000e+03) (622, -1.50000000000000000000e+03) (623, -1.50000000000000000000e+03) (624, -1.50000000000000000000e+03) (625, -1.50000000000000000000e+03) (626, -1.50000000000000000000e+03) (627, -1.50000000000000000000e+03) (628, -1.50000000000000000000e+03) (629, -1.50000000000000000000e+03) (630, -1.50000000000000000000e+03) (631, -1.50000000000000000000e+03) (632, -1.50000000000000000000e+03) (633, -1.50000000000000000000e+03) (634, -1.50000000000000000000e+03) (635, -1.50000000000000000000e+03) (636, -1.50000000000000000000e+03) (637, -6.99210052490234375000e+01) (638, 1.50000000000000000000e+03) (639, 1.50000000000000000000e+03) (640, 1.50000000000000000000e+03) (641, 1.50000000000000000000e+03) (642, 1.50000000000000000000e+03) (643, 1.50000000000000000000e+03) (644, 1.50000000000000000000e+03) (645, 8.10738647460937500000e+02) (646, 1.08419995117187500000e+03) (647, 1.50000000000000000000e+03) (648, 1.90800048828125000000e+02) (649, -4.76504302978515625000e+02) (650, 1.01351974487304687500e+02) (651, -1.50000000000000000000e+03) (652, -5.95792907714843750000e+02) (653, -1.50000000000000000000e+03) (654, -1.50000000000000000000e+03) (655, -1.50000000000000000000e+03) (656, -1.50000000000000000000e+03) (657, -1.50000000000000000000e+03) (658, -1.50000000000000000000e+03) (659, -1.50000000000000000000e+03) (660, -1.50000000000000000000e+03) (661, -1.50000000000000000000e+03) (662, -1.50000000000000000000e+03) (663, -3.56740478515625000000e+02) (664, 5.90800048828125000000e+02) (665, 1.36229394531250000000e+03) (666, 1.50000000000000000000e+03) (667, 1.50000000000000000000e+03) (668, 1.50000000000000000000e+03) (669, 1.41240002441406250000e+03) (670, 1.50000000000000000000e+03) (671, 1.50000000000000000000e+03) (672, 1.50000000000000000000e+03) (673, 1.50000000000000000000e+03) (674, 1.50000000000000000000e+03) (675, -1.50000000000000000000e+03) (676, -1.50000000000000000000e+03) (677, 6.40800048828125000000e+02) (678, 1.50000000000000000000e+03) (679, 1.49989648437500000000e+03) (680, 7.57922790527343750000e+02) (681, 4.48078857421875000000e+02) (682, -1.50000000000000000000e+03) (683, -1.50000000000000000000e+03) (684, -1.50000000000000000000e+03) (685, -1.50000000000000000000e+03) (686, -1.50000000000000000000e+03) (687, -1.50000000000000000000e+03) (688, 5.47059814453125000000e+02) (689, 1.50000000000000000000e+03) (690, 1.45521423339843750000e+03) (691, 7.90800048828125000000e+02) (692, 1.16685119628906250000e+03) (693, 1.07830297851562500000e+03) (694, 1.50000000000000000000e+03) (695, 1.50000000000000000000e+03) (696, 1.50000000000000000000e+03) (697, -5.00319702148437500000e+02) (698, 1.50000000000000000000e+03) (699, 1.50000000000000000000e+03) (700, 1.50000000000000000000e+03) (701, 1.50000000000000000000e+03) (702, 1.50000000000000000000e+03) (703, -1.50000000000000000000e+03) (704, -1.50000000000000000000e+03) (705, -1.50000000000000000000e+03) (706, 1.50000000000000000000e+03) (707, 1.50000000000000000000e+03) (708, 1.50000000000000000000e+03) (709, 1.50000000000000000000e+03) (710, 1.50000000000000000000e+03) (711, 1.50000000000000000000e+03) (712, 1.50000000000000000000e+03) (713, 1.50000000000000000000e+03) (714, 1.50000000000000000000e+03) (715, 1.50000000000000000000e+03) (716, 1.50000000000000000000e+03) (717, 1.50000000000000000000e+03) (718, 1.50000000000000000000e+03) (719, 1.50000000000000000000e+03) (720, 1.50000000000000000000e+03) (721, 1.50000000000000000000e+03) (722, 1.50000000000000000000e+03) (723, 1.50000000000000000000e+03) (724, 1.37500000000000000000e+03) (725, 1.50000000000000000000e+03) (726, 1.50000000000000000000e+03) (727, 1.50000000000000000000e+03) (728, 1.50000000000000000000e+03) (729, 1.50000000000000000000e+03) (730, 1.50000000000000000000e+03) (731, 1.50000000000000000000e+03) (732, 1.50000000000000000000e+03) (733, 1.50000000000000000000e+03) (734, 1.50000000000000000000e+03) (735, 1.50000000000000000000e+03) (736, 1.50000000000000000000e+03) (737, 1.50000000000000000000e+03) (738, 1.50000000000000000000e+03) (739, 1.50000000000000000000e+03) (740, 1.50000000000000000000e+03) (741, 1.50000000000000000000e+03) (742, 1.50000000000000000000e+03) (743, 1.50000000000000000000e+03) (744, 1.50000000000000000000e+03) (745, 1.50000000000000000000e+03) (746, 1.50000000000000000000e+03) (747, 1.50000000000000000000e+03) (748, 1.50000000000000000000e+03) (749, 1.50000000000000000000e+03) (750, 1.50000000000000000000e+03) (751, 1.16632006835937500000e+03) (752, 4.90800048828125000000e+02) (753, 1.50000000000000000000e+03) (754, 1.50000000000000000000e+03) (755, 1.50000000000000000000e+03) (756, 1.50000000000000000000e+03) (757, 1.50000000000000000000e+03) (758, 1.50000000000000000000e+03) (759, 1.50000000000000000000e+03) (760, 1.50000000000000000000e+03) (761, 1.50000000000000000000e+03) (762, 1.50000000000000000000e+03) (763, -1.50000000000000000000e+03) (764, -1.50000000000000000000e+03) (765, 1.50000000000000000000e+03) (766, 1.50000000000000000000e+03) (767, 1.50000000000000000000e+03) (768, 1.47000000000000000000e+03) (769, 8.29175476074218750000e+02) (770, 1.29080004882812500000e+03) (771, 1.50000000000000000000e+03) (772, 1.50000000000000000000e+03) (773, 1.50000000000000000000e+03) (774, 1.50000000000000000000e+03) (775, 1.50000000000000000000e+03) (776, 1.50000000000000000000e+03) (777, 1.22665991210937500000e+03) (778, 1.50000000000000000000e+03) (779, 1.50000000000000000000e+03) (780, 1.50000000000000000000e+03) (781, 1.50000000000000000000e+03) (782, 1.50000000000000000000e+03) (783, 1.50000000000000000000e+03) (784, -1.48338403320312500000e+03) (0, 1.50000000000000000000e+03) (1, 1.50000000000000000000e+03) (2, 1.50000000000000000000e+03) (3, 1.50000000000000000000e+03) (4, 1.50000000000000000000e+03) (5, 1.50000000000000000000e+03) (6, 1.50000000000000000000e+03) (7, 1.50000000000000000000e+03) (8, 1.50000000000000000000e+03) (9, 1.50000000000000000000e+03) (10, 1.50000000000000000000e+03) (11, 1.50000000000000000000e+03) (12, 1.50000000000000000000e+03) (13, 1.50000000000000000000e+03) (14, 1.50000000000000000000e+03) (15, 1.50000000000000000000e+03) (16, 1.50000000000000000000e+03) (17, 1.50000000000000000000e+03) (18, 1.50000000000000000000e+03) (19, 1.50000000000000000000e+03) (20, 1.50000000000000000000e+03) (21, 1.50000000000000000000e+03) (22, 1.50000000000000000000e+03) (23, 1.50000000000000000000e+03) (24, 1.50000000000000000000e+03) (25, 1.50000000000000000000e+03) (26, 1.50000000000000000000e+03) (27, 1.50000000000000000000e+03) (28, 1.50000000000000000000e+03) (29, 1.50000000000000000000e+03) (30, 1.50000000000000000000e+03) (31, 1.50000000000000000000e+03) (32, 1.50000000000000000000e+03) (33, -1.50000000000000000000e+03) (34, -1.50000000000000000000e+03) (35, -1.50000000000000000000e+03) (36, -1.50000000000000000000e+03) (37, -1.50000000000000000000e+03) (38, 1.50000000000000000000e+03) (39, 1.44080004882812500000e+03) (40, 1.11577172851562500000e+03) (41, 1.27466137695312500000e+03) (42, 4.08000488281250000000e+01) (43, 1.19506127929687500000e+03) (44, 9.40800048828125000000e+02) (45, 9.97861511230468750000e+02) (46, 5.40800048828125000000e+02) (47, 1.50000000000000000000e+03) (48, 1.50000000000000000000e+03) (49, 1.50000000000000000000e+03) (50, 1.50000000000000000000e+03) (51, 1.50000000000000000000e+03) (52, 1.50000000000000000000e+03) (53, 1.50000000000000000000e+03) (54, 1.50000000000000000000e+03) (55, 1.50000000000000000000e+03) (56, 1.50000000000000000000e+03) (57, 1.50000000000000000000e+03) (58, 1.50000000000000000000e+03) (59, 1.50000000000000000000e+03) (60, 1.50000000000000000000e+03) (61, -1.50000000000000000000e+03) (62, -1.50000000000000000000e+03) (63, -1.50000000000000000000e+03) (64, 8.75461364746093750000e+02) (65, 1.47000000000000000000e+03) (66, 1.24126135253906250000e+03) (67, 1.50000000000000000000e+03) (68, 1.50000000000000000000e+03) (69, 1.50000000000000000000e+03) (70, 1.50000000000000000000e+03) (71, 1.50000000000000000000e+03) (72, 1.50000000000000000000e+03) (73, 1.50000000000000000000e+03) (74, 1.50000000000000000000e+03) (75, -1.36676879882812500000e+03) (76, -6.70159973144531250000e+02) (77, 1.50000000000000000000e+03) (78, 1.50000000000000000000e+03) (79, 1.50000000000000000000e+03) (80, 1.50000000000000000000e+03) (81, 1.50000000000000000000e+03) (82, 1.50000000000000000000e+03) (83, 1.50000000000000000000e+03) (84, 1.50000000000000000000e+03) (85, 1.50000000000000000000e+03) (86, 1.50000000000000000000e+03) (87, 1.50000000000000000000e+03) (88, -6.65800048828125000000e+02) (89, -1.50000000000000000000e+03) (90, -1.50000000000000000000e+03) (91, -1.50000000000000000000e+03) (92, 5.22468872070312500000e+02) (93, -1.09199951171875000000e+02) (94, -3.60938537597656250000e+02) (95, 1.09080004882812500000e+03) (96, 1.50000000000000000000e+03) (97, 4.83514221191406250000e+02) (98, -1.25419995117187500000e+03) (99, -7.32894409179687500000e+02) (100, -9.11284667968750000000e+02) (101, -3.59773071289062500000e+02) (102, 8.56261352539062500000e+02) (103, 3.06600036621093750000e+02) (104, 3.64342407226562500000e+02) (105, -7.21772949218750000000e+02) (106, 1.36143981933593750000e+03) (107, 1.50000000000000000000e+03) (108, 1.04080004882812500000e+03) (109, 3.89061401367187500000e+02) (110, 1.47000000000000000000e+03) (111, 1.50000000000000000000e+03) (112, 1.50000000000000000000e+03) (113, 1.50000000000000000000e+03) (114, 1.50000000000000000000e+03) (115, 1.50000000000000000000e+03) (116, 1.50000000000000000000e+03) (117, -1.50000000000000000000e+03) (118, -1.50000000000000000000e+03) (119, -2.78458923339843750000e+02) (120, 1.50000000000000000000e+03) (121, 1.50000000000000000000e+03) (122, 1.50000000000000000000e+03) (123, 1.03845068359375000000e+03) (124, -1.41947998046875000000e+03) (125, -1.50000000000000000000e+03) (126, -1.50000000000000000000e+03) (127, -1.50000000000000000000e+03) (128, -1.50000000000000000000e+03) (129, -1.50000000000000000000e+03) (130, -1.33650341796875000000e+03) (131, -1.50000000000000000000e+03) (132, -1.50000000000000000000e+03) (133, -1.50000000000000000000e+03) (134, -3.63324737548828125000e+00) (135, 1.50000000000000000000e+03) (136, 1.50000000000000000000e+03) (137, -1.50000000000000000000e+03) (138, -1.50000000000000000000e+03) (139, 1.50000000000000000000e+03) (140, 1.50000000000000000000e+03) (141, -5.09199951171875000000e+02) (142, -4.09199951171875000000e+02) (143, -1.50000000000000000000e+03) (144, 1.50000000000000000000e+03) (145, 1.50000000000000000000e+03) (146, 1.50000000000000000000e+03) (147, 1.50000000000000000000e+03) (148, -7.56478210449218750000e+02) (149, -9.77894042968750000000e+02) (150, -1.32644995117187500000e+03) (151, -1.26580004882812500000e+03) (152, -1.50000000000000000000e+03) (153, -1.50000000000000000000e+03) (154, -1.50000000000000000000e+03) (155, -1.50000000000000000000e+03) (156, -1.50000000000000000000e+03) (157, -1.50000000000000000000e+03) (158, -1.50000000000000000000e+03) (159, -1.50000000000000000000e+03) (160, -1.50000000000000000000e+03) (161, -1.50000000000000000000e+03) (162, -1.01560003662109375000e+03) (163, -6.96895446777343750000e+02) (164, -1.50000000000000000000e+03) (165, -1.50000000000000000000e+03) (166, -1.50000000000000000000e+03) (167, 1.50000000000000000000e+03) (168, 1.50000000000000000000e+03) (169, 1.50000000000000000000e+03) (170, -1.50000000000000000000e+03) (171, 1.50000000000000000000e+03) (172, 1.50000000000000000000e+03) (173, 1.50000000000000000000e+03) (174, 1.50000000000000000000e+03) (175, 8.66848205566406250000e+02) (176, -9.32484985351562500000e+02) (177, -1.27293261718750000000e+03) (178, -1.49588757324218750000e+03) (179, -1.49552001953125000000e+03) (180, -1.11114453125000000000e+03) (181, 8.35441650390625000000e+02) (182, 1.49495507812500000000e+03) (183, 1.21525024414062500000e+03) (184, -4.50311767578125000000e+02) (185, -1.14782641601562500000e+03) (186, -1.42830310058593750000e+03) (187, -1.50000000000000000000e+03) (188, -1.50000000000000000000e+03) (189, -1.50000000000000000000e+03) (190, -1.50000000000000000000e+03) (191, -1.50000000000000000000e+03) (192, -1.50000000000000000000e+03) (193, -1.50000000000000000000e+03) (194, -1.50000000000000000000e+03) (195, -1.50000000000000000000e+03) (196, 1.50000000000000000000e+03) (197, -1.50000000000000000000e+03) (198, -1.50000000000000000000e+03) (199, 1.38089013671875000000e+03) (200, 1.50000000000000000000e+03) (201, 6.48695190429687500000e+02) (202, -1.50000000000000000000e+03) (203, -1.50000000000000000000e+03) (204, -1.50000000000000000000e+03) (205, -1.50000000000000000000e+03) (206, -1.50000000000000000000e+03) (207, -1.50000000000000000000e+03) (208, 1.45996899414062500000e+03) (209, 1.46603454589843750000e+03) (210, 1.50000000000000000000e+03) (211, 1.50000000000000000000e+03) (212, 1.50000000000000000000e+03) (213, 1.50000000000000000000e+03) (214, 1.50000000000000000000e+03) (215, -1.32729675292968750000e+03) (216, -1.50000000000000000000e+03) (217, -1.50000000000000000000e+03) (218, -1.50000000000000000000e+03) (219, -1.50000000000000000000e+03) (220, -1.50000000000000000000e+03) (221, -1.50000000000000000000e+03) (222, -1.50000000000000000000e+03) (223, -1.50000000000000000000e+03) (224, 1.50000000000000000000e+03) (225, -1.50000000000000000000e+03) (226, -1.50000000000000000000e+03) (227, -8.53771789550781250000e+02) (228, -9.99166748046875000000e+02) (229, -1.50000000000000000000e+03) (230, -1.50000000000000000000e+03) (231, -1.50000000000000000000e+03) (232, -1.50000000000000000000e+03) (233, -1.50000000000000000000e+03) (234, -1.50000000000000000000e+03) (235, -1.50000000000000000000e+03) (236, -1.50000000000000000000e+03) (237, 1.48528186035156250000e+03) (238, 1.50000000000000000000e+03) (239, 1.50000000000000000000e+03) (240, 1.50000000000000000000e+03) (241, 1.50000000000000000000e+03) (242, -1.04116198730468750000e+03) (243, -1.50000000000000000000e+03) (244, -1.50000000000000000000e+03) (245, -1.50000000000000000000e+03) (246, -1.50000000000000000000e+03) (247, -1.50000000000000000000e+03) (248, -1.50000000000000000000e+03) (249, -1.50000000000000000000e+03) (250, 1.50000000000000000000e+03) (251, -1.04199951171875000000e+02) (252, -1.50000000000000000000e+03) (253, -1.50000000000000000000e+03) (254, -1.47760510253906250000e+03) (255, -1.50000000000000000000e+03) (256, -1.50000000000000000000e+03) (257, -1.50000000000000000000e+03) (258, -1.50000000000000000000e+03) (259, -1.50000000000000000000e+03) (260, -1.50000000000000000000e+03) (261, -1.50000000000000000000e+03) (262, -1.50000000000000000000e+03) (263, -1.50000000000000000000e+03) (264, -1.50000000000000000000e+03) (265, 1.44793542480468750000e+03) (266, 1.50000000000000000000e+03) (267, 1.50000000000000000000e+03) (268, 1.50000000000000000000e+03) (269, 1.38113391113281250000e+03) (270, -1.50000000000000000000e+03) (271, -1.50000000000000000000e+03) (272, -1.50000000000000000000e+03) (273, -1.50000000000000000000e+03) (274, -1.50000000000000000000e+03) (275, -1.50000000000000000000e+03) (276, -1.50000000000000000000e+03) (277, -1.12780004882812500000e+03) (278, -4.72306518554687500000e+01) (279, -1.50000000000000000000e+03) (280, -1.50000000000000000000e+03) (281, -1.50000000000000000000e+03) (282, -1.50000000000000000000e+03) (283, -1.17993835449218750000e+02) (284, -6.20301757812500000000e+02) (285, -1.50000000000000000000e+03) (286, -1.50000000000000000000e+03) (287, -1.50000000000000000000e+03) (288, -1.50000000000000000000e+03) (289, -1.50000000000000000000e+03) (290, -1.50000000000000000000e+03) (291, -1.50000000000000000000e+03) (292, -1.50000000000000000000e+03) (293, 1.50000000000000000000e+03) (294, 1.50000000000000000000e+03) (295, 1.50000000000000000000e+03) (296, 1.50000000000000000000e+03) (297, -1.29275695800781250000e+03) (298, -1.50000000000000000000e+03) (299, -1.50000000000000000000e+03) (300, -1.50000000000000000000e+03) (301, -1.50000000000000000000e+03) (302, -1.50000000000000000000e+03) (303, -1.50000000000000000000e+03) (304, -1.50000000000000000000e+03) (305, -1.50000000000000000000e+03) (306, -1.50000000000000000000e+03) (307, -1.50000000000000000000e+03) (308, -1.50000000000000000000e+03) (309, -1.50000000000000000000e+03) (310, -1.50000000000000000000e+03) (311, 1.50000000000000000000e+03) (312, 1.50000000000000000000e+03) (313, 1.37669616699218750000e+02) (314, -2.01940612792968750000e+02) (315, 1.50000000000000000000e+03) (316, 7.79328369140625000000e+02) (317, -1.50000000000000000000e+03) (318, -1.50000000000000000000e+03) (319, -1.50000000000000000000e+03) (320, -1.50000000000000000000e+03) (321, 1.50000000000000000000e+03) (322, 1.50000000000000000000e+03) (323, 1.50000000000000000000e+03) (324, 1.50000000000000000000e+03) (325, -4.28287078857421875000e+02) (326, -7.83630752563476562500e+01) (327, -1.47300000000000000000e+03) (328, -1.50000000000000000000e+03) (329, -1.50000000000000000000e+03) (330, -1.50000000000000000000e+03) (331, -1.50000000000000000000e+03) (332, -1.50000000000000000000e+03) (333, -1.50000000000000000000e+03) (334, -6.49557128906250000000e+02) (335, -1.50000000000000000000e+03) (336, 1.50000000000000000000e+03) (337, -1.50000000000000000000e+03) (338, -1.50000000000000000000e+03) (339, 1.50000000000000000000e+03) (340, 1.50000000000000000000e+03) (341, 3.72439727783203125000e+02) (342, 1.50000000000000000000e+03) (343, 1.50000000000000000000e+03) (344, 1.50000000000000000000e+03) (345, -3.58860595703125000000e+02) (346, -1.50000000000000000000e+03) (347, -1.50000000000000000000e+03) (348, -6.32631835937500000000e+01) (349, 1.50000000000000000000e+03) (350, 1.50000000000000000000e+03) (351, 1.50000000000000000000e+03) (352, 1.04477429199218750000e+03) (353, 4.74035766601562500000e+02) (354, 1.07760253906250000000e+03) (355, -1.16991052246093750000e+03) (356, -1.50000000000000000000e+03) (357, -1.50000000000000000000e+03) (358, -1.50000000000000000000e+03) (359, -1.50000000000000000000e+03) (360, -1.50000000000000000000e+03) (361, -1.50000000000000000000e+03) (362, 1.50000000000000000000e+03) (363, 1.50000000000000000000e+03) (364, 1.50000000000000000000e+03) (365, -1.50000000000000000000e+03) (366, -1.50000000000000000000e+03) (367, 1.50000000000000000000e+03) (368, 1.50000000000000000000e+03) (369, -9.90480590820312500000e+02) (370, 1.50000000000000000000e+03) (371, 1.50000000000000000000e+03) (372, 1.50000000000000000000e+03) (373, 1.50000000000000000000e+03) (374, 1.50000000000000000000e+03) (375, 5.12550048828125000000e+01) (376, 6.70524536132812500000e+02) (377, 1.50000000000000000000e+03) (378, 1.50000000000000000000e+03) (379, 1.50000000000000000000e+03) (380, 1.43011914062500000000e+03) (381, 1.50000000000000000000e+03) (382, 1.50000000000000000000e+03) (383, 1.91027008056640625000e+02) (384, -8.80366088867187500000e+02) (385, -1.49424743652343750000e+03) (386, -1.50000000000000000000e+03) (387, -1.50000000000000000000e+03) (388, -1.50000000000000000000e+03) (389, 7.97661376953125000000e+02) (390, -1.40000000000000000000e+03) (391, 1.50000000000000000000e+03) (392, 1.50000000000000000000e+03) (393, 1.50000000000000000000e+03) (394, -6.31001586914062500000e+02) (395, -1.01919738769531250000e+03) (396, -1.39749169921875000000e+03) (397, -8.21261352539062500000e+02) (398, 5.36986206054687500000e+02) (399, 1.50000000000000000000e+03) (400, 1.50000000000000000000e+03) (401, 1.50000000000000000000e+03) (402, 1.50000000000000000000e+03) (403, 1.33786206054687500000e+03) (404, 1.49981188964843750000e+03) (405, 1.50000000000000000000e+03) (406, 1.50000000000000000000e+03) (407, 1.50000000000000000000e+03) (408, 1.33283728027343750000e+03) (409, 1.50000000000000000000e+03) (410, 1.50000000000000000000e+03) (411, 1.50000000000000000000e+03) (412, 9.92197814941406250000e+02) (413, 1.50000000000000000000e+03) (414, -5.97491943359375000000e+02) (415, -1.50000000000000000000e+03) (416, -1.50000000000000000000e+03) (417, -1.50000000000000000000e+03) (418, -1.50000000000000000000e+03) (419, 1.50000000000000000000e+03) (420, 1.50000000000000000000e+03) (421, 1.50000000000000000000e+03) (422, -1.40337597656250000000e+03) (423, -9.64371826171875000000e+02) (424, -1.25454870605468750000e+03) (425, -1.45272766113281250000e+03) (426, -1.17811840820312500000e+03) (427, 1.50000000000000000000e+03) (428, 1.50000000000000000000e+03) (429, 2.41408325195312500000e+02) (430, -1.50000000000000000000e+03) (431, -1.50000000000000000000e+03) (432, -2.14110778808593750000e+02) (433, 1.47919653320312500000e+03) (434, 1.09048181152343750000e+03) (435, 1.47103479003906250000e+03) (436, 1.44674609375000000000e+03) (437, 1.50000000000000000000e+03) (438, 1.50000000000000000000e+03) (439, 1.33835021972656250000e+03) (440, 1.50000000000000000000e+03) (441, 1.50000000000000000000e+03) (442, 1.50000000000000000000e+03) (443, -1.50000000000000000000e+03) (444, -1.50000000000000000000e+03) (445, -1.50000000000000000000e+03) (446, -1.50000000000000000000e+03) (447, 1.50000000000000000000e+03) (448, 1.50000000000000000000e+03) (449, -1.50000000000000000000e+03) (450, 4.68200134277343750000e+02) (451, 1.50000000000000000000e+03) (452, -1.06580004882812500000e+03) (453, -1.50000000000000000000e+03) (454, -1.50000000000000000000e+03) (455, -1.14890783691406250000e+03) (456, -1.50000000000000000000e+03) (457, -1.50000000000000000000e+03) (458, -1.50000000000000000000e+03) (459, -1.50000000000000000000e+03) (460, -1.50000000000000000000e+03) (461, -1.50000000000000000000e+03) (462, -7.81100280761718750000e+02) (463, -1.44477185058593750000e+03) (464, 